
#include <stdio.h>
#include <stdlib.h>
#include "ai-sdk/tensorflow/lite/c/builtin_op_data.h"
#include "ai-sdk/tensorflow/lite/c/common.h"
#include "ai-sdk/tensorflow/lite/micro/micro_mutable_op_resolver.h"
#include "ai-sdk/porting/ei_classifier_porting.h"

#if EI_CLASSIFIER_PRINT_STATE
#if defined(__cplusplus) && EI_C_LINKAGE == 1
extern "C" {
    extern void ei_printf(const char *format, ...);
}
#else
extern void ei_printf(const char *format, ...);
#endif
#endif

#define STRINGIZE(x) #x
#define STRINGIZE_VALUE_OF(x) STRINGIZE(x)

#if defined (__GNUC__)  /* GNU compiler */
#define ALIGN(X) __attribute__((aligned(X)))
#define DEFINE_SECTION(x) __attribute__((section(x)))
#elif defined (_MSC_VER)
#define ALIGN(X) __declspec(align(X))
#elif defined (__TASKING__) /* TASKING Compiler */
#define ALIGN(X) __align(X)
#define DEFINE_SECTION(x) __attribute__((section(x)))
#elif defined (__ARMCC_VERSION) /* Arm Compiler */
#define ALIGN(X) __ALIGNED(x)
#define DEFINE_SECTION(x) __attribute__((section(x)))
#elif defined (__ICCARM__) /* IAR Compiler */
#define ALIGN(x) __attribute__((aligned(x)))
#define DEFINE_SECTION(x) __attribute__((section(x)))
#elif defined (__clang__) /* LLVM/Clang Compiler */
#define ALIGN(X) __ALIGNED(x)
#define DEFINE_SECTION(x) __attribute__((section(x)))
#endif

#if defined(EI_MODEL_SECTION) && (defined(__GNUC__) || defined(__clang__))
#define MODEL_SECTION(X) __attribute__((section(STRINGIZE_VALUE_OF(X))))
#else
#define MODEL_SECTION(X)
#endif

#ifndef EI_MAX_SCRATCH_BUFFER_COUNT
#ifndef CONFIG_IDF_TARGET_ESP32S3
#define EI_MAX_SCRATCH_BUFFER_COUNT 14
#else
#define EI_MAX_SCRATCH_BUFFER_COUNT 28
#endif // CONFIG_IDF_TARGET_ESP32S3
#endif // EI_MAX_SCRATCH_BUFFER_COUNT

#ifndef EI_MAX_OVERFLOW_BUFFER_COUNT
#define EI_MAX_OVERFLOW_BUFFER_COUNT 10
#endif // EI_MAX_OVERFLOW_BUFFER_COUNT

using namespace tflite;
using namespace tflite::ops;
using namespace tflite::ops::micro;

namespace {

#if defined(EI_CLASSIFIER_ALLOCATION_STATIC_HIMAX) || defined(EI_CLASSIFIER_ALLOCATION_STATIC_HIMAX_GNU)
constexpr int kTensorArenaSize = 242576;
#else
constexpr int kTensorArenaSize = 241552;
#endif

#if defined(EI_CLASSIFIER_ALLOCATION_STATIC)
#if defined (EI_TENSOR_ARENA_LOCATION)
uint8_t tensor_arena[kTensorArenaSize] ALIGN(16) DEFINE_SECTION(STRINGIZE_VALUE_OF(EI_TENSOR_ARENA_LOCATION));
#else
uint8_t tensor_arena[kTensorArenaSize] ALIGN(16);
#endif
#elif defined(EI_CLASSIFIER_ALLOCATION_STATIC_HIMAX)
#pragma Bss(".tensor_arena")
uint8_t tensor_arena[kTensorArenaSize] ALIGN(16);
#pragma Bss()
#elif defined(EI_CLASSIFIER_ALLOCATION_STATIC_HIMAX_GNU)
uint8_t tensor_arena[kTensorArenaSize] ALIGN(16) __attribute__((section(".tensor_arena")));
#else
#define EI_CLASSIFIER_ALLOCATION_HEAP 1
uint8_t* tensor_arena = NULL;
#endif

static uint8_t* tensor_boundary;
static uint8_t* current_location;

template <int SZ, class T> struct TfArray {
  int sz; T elem[SZ];
};

enum used_operators_e {
  OP_CONV_2D, OP_DEPTHWISE_CONV_2D, OP_PAD, OP_ADD, OP_SOFTMAX,  OP_LAST
};

struct TensorInfo_t { // subset of TfLiteTensor used for initialization from constant memory
  TfLiteAllocationType allocation_type;
  TfLiteType type;
  void* data;
  TfLiteIntArray* dims;
  size_t bytes;
  TfLiteQuantization quantization;
};

typedef struct {
  TfLiteTensor tensor;
  int16_t index;
} TfLiteTensorWithIndex;

typedef struct {
  TfLiteEvalTensor tensor;
  int16_t index;
} TfLiteEvalTensorWithIndex;

TfLiteContext ctx{};
static const int MAX_TFL_TENSOR_COUNT = 4;
static TfLiteTensorWithIndex tflTensors[MAX_TFL_TENSOR_COUNT];
static const int MAX_TFL_EVAL_COUNT = 4;
static TfLiteEvalTensorWithIndex tflEvalTensors[MAX_TFL_EVAL_COUNT];
TfLiteRegistration registrations[OP_LAST];

namespace g0 {
const TfArray<4, int> tensor_dimension0 = { 4, { 1,96,96,1 } };
const TfArray<1, float> quant0_scale = { 1, { 0.0038110420573502779, } };
const TfArray<1, int> quant0_zero = { 1, { -128 } };
const TfLiteAffineQuantization quant0 = { (TfLiteFloatArray*)&quant0_scale, (TfLiteIntArray*)&quant0_zero, 0 };
const MODEL_SECTION(EI_MODEL_SECTION) ALIGN(16) int32_t tensor_data1[4*2] = { 
  0, 0, 
  0, 1, 
  0, 1, 
  0, 0, 
};
const TfArray<2, int> tensor_dimension1 = { 2, { 4,2 } };
const MODEL_SECTION(EI_MODEL_SECTION) ALIGN(16) int8_t tensor_data2[16*3*3*1] = { 
  /* [0][0][][] */ -89, -113, -32, 
  /* [0][1][][] */ 66, -39, 15, 
  /* [0][2][][] */ 30, 127, 18, 
  /* [1][0][][] */ 106, -94, -10, 
  /* [1][1][][] */ -127, 105, 24, 
  /* [1][2][][] */ 14, -1, -12, 
  /* [2][0][][] */ -24, -2, -48, 
  /* [2][1][][] */ 36, 95, 127, 
  /* [2][2][][] */ -11, -94, -78, 
  /* [3][0][][] */ 121, 127, 59, 
  /* [3][1][][] */ 3, -20, -13, 
  /* [3][2][][] */ -99, -125, -42, 
  /* [4][0][][] */ 29, -49, 2, 
  /* [4][1][][] */ 22, -127, 0, 
  /* [4][2][][] */ 9, -86, -12, 
  /* [5][0][][] */ -64, 24, -4, 
  /* [5][1][][] */ -127, 28, 3, 
  /* [5][2][][] */ -78, 32, 8, 
  /* [6][0][][] */ -15, 80, 127, 
  /* [6][1][][] */ -48, 57, -14, 
  /* [6][2][][] */ -34, -49, -86, 
  /* [7][0][][] */ 34, 20, -25, 
  /* [7][1][][] */ 127, 69, -10, 
  /* [7][2][][] */ 27, 2, -24, 
  /* [8][0][][] */ -21, -30, 52, 
  /* [8][1][][] */ -54, -87, 127, 
  /* [8][2][][] */ -26, -61, 96, 
  /* [9][0][][] */ -20, 49, -11, 
  /* [9][1][][] */ -11, 127, -8, 
  /* [9][2][][] */ -3, 84, -9, 
  /* [10][0][][] */ 25, 88, 12, 
  /* [10][1][][] */ -37, -127, -29, 
  /* [10][2][][] */ 12, 40, 18, 
  /* [11][0][][] */ 8, -18, 10, 
  /* [11][1][][] */ 65, -93, 35, 
  /* [11][2][][] */ -84, 127, -46, 
  /* [12][0][][] */ -41, 48, -10, 
  /* [12][1][][] */ -127, 113, 5, 
  /* [12][2][][] */ -78, 78, 5, 
  /* [13][0][][] */ 82, 23, -15, 
  /* [13][1][][] */ 127, 104, -14, 
  /* [13][2][][] */ 61, 99, 24, 
  /* [14][0][][] */ -30, -28, 48, 
  /* [14][1][][] */ 44, 99, -127, 
  /* [14][2][][] */ -16, -70, 81, 
  /* [15][0][][] */ -80, -24, 25, 
  /* [15][1][][] */ -126, -127, 14, 
  /* [15][2][][] */ -26, -77, -4, 
};
const TfArray<4, int> tensor_dimension2 = { 4, { 16,3,3,1 } };
const TfArray<16, float> quant2_scale = { 16, { 0.060794878751039505, 0.23515231907367706, 0.062920317053794861, 0.045558419078588486, 0.010264518670737743, 0.014897302724421024, 0.040532570332288742, 0.012525261379778385, 0.056409507989883423, 0.014400847256183624, 0.12894348800182343, 0.22952884435653687, 0.15736043453216553, 0.008198385126888752, 0.16854183375835419, 0.016136748716235161, } };
const TfArray<16, int> quant2_zero = { 16, { 0,0,0,0,0,0,0,0,0,0,0,0,0,0,0,0 } };
const TfLiteAffineQuantization quant2 = { (TfLiteFloatArray*)&quant2_scale, (TfLiteIntArray*)&quant2_zero, 0 };
const MODEL_SECTION(EI_MODEL_SECTION) ALIGN(16) int32_t tensor_data3[16] = { 2664, -306, -62, -21, 46271, 34899, 2587, -2609, 4385, -2498, 943, -497, 3440, -23841, 71, 39127, };
const TfArray<1, int> tensor_dimension3 = { 1, { 16 } };
const TfArray<16, float> quant3_scale = { 16, { 0.0002316918398719281, 0.00089617539197206497, 0.00023979197430890054, 0.00017362505604978651, 3.9118513086577877e-05, 5.6774246331769973e-05, 0.00015447133046109229, 4.7734298277646303e-05, 0.00021497900888789445, 5.4882235417608172e-05, 0.00049140903865918517, 0.00087474408792331815, 0.00059970724396407604, 3.1244391720974818e-05, 0.00064232002478092909, 6.149782711872831e-05, } };
const TfArray<16, int> quant3_zero = { 16, { 0,0,0,0,0,0,0,0,0,0,0,0,0,0,0,0 } };
const TfLiteAffineQuantization quant3 = { (TfLiteFloatArray*)&quant3_scale, (TfLiteIntArray*)&quant3_zero, 0 };
const MODEL_SECTION(EI_MODEL_SECTION) ALIGN(16) int8_t tensor_data4[1*3*3*16] = { 
  /* [0][0][][] */ 3,-4,2,1,-18,11,10,16,-8,-11,1,-8,0,-6,2,-2, 9,-5,-2,1,14,-2,14,-26,-11,9,-5,92,-6,22,-1,-2, 4,-2,-2,1,3,-13,-1,12,-1,2,-5,-6,7,-5,-7,-3, 
  /* [0][1][][] */ 15,-6,2,1,127,-24,-127,-21,127,127,-2,-3,103,-24,0,-18, -127,127,127,-3,-86,-91,-11,-102,17,-105,127,127,127,127,127,127, 22,0,-4,-1,-10,127,10,-10,-4,-12,-8,-2,9,-4,-12,-10, 
  /* [0][2][][] */ 2,-3,-3,-11,-16,16,58,7,-12,-7,0,0,3,1,-6,-10, 24,-15,-5,-127,8,-16,-7,127,-6,2,2,-15,-6,-56,-8,-36, 3,-3,-2,-5,3,-5,1,-2,1,3,-5,2,3,-5,-8,-14, 
};
const TfArray<4, int> tensor_dimension4 = { 4, { 1,3,3,16 } };
const TfArray<16, float> quant4_scale = { 16, { 0.0052451919764280319, 0.0078195584937930107, 0.0065018008463084698, 0.0070501454174518585, 0.044040538370609283, 0.041467446833848953, 0.0061245099641382694, 0.027008408680558205, 0.015732044354081154, 0.057143867015838623, 0.010449391789734364, 0.0078196804970502853, 0.0039481287822127342, 0.0094892000779509544, 0.0085113337263464928, 0.026816165074706078, } };
const TfArray<16, int> quant4_zero = { 16, { 0,0,0,0,0,0,0,0,0,0,0,0,0,0,0,0 } };
const TfLiteAffineQuantization quant4 = { (TfLiteFloatArray*)&quant4_scale, (TfLiteIntArray*)&quant4_zero, 3 };
const MODEL_SECTION(EI_MODEL_SECTION) ALIGN(16) int32_t tensor_data5[16] = { 18682, -734, 101, 3282, -1246, 242, 9914, 1663, -559, 99, -2248, 2588, 1090, -615, -200, -947, };
const TfArray<1, int> tensor_dimension5 = { 1, { 16 } };
const TfArray<16, float> quant5_scale = { 16, { 0.00012341627734713256, 0.00018398961401544511, 0.00015298355720005929, 0.00016588578000664711, 0.0010362479370087385, 0.00097570463549345732, 0.00014410611765924841, 0.00063549197511747479, 0.00037016576970927417, 0.0013445615768432617, 0.00024586805375292897, 0.0001839924807427451, 9.2897149443160743e-05, 0.00022327530314214528, 0.00020026667334605008, 0.00063096859958022833, } };
const TfArray<16, int> quant5_zero = { 16, { 0,0,0,0,0,0,0,0,0,0,0,0,0,0,0,0 } };
const TfLiteAffineQuantization quant5 = { (TfLiteFloatArray*)&quant5_scale, (TfLiteIntArray*)&quant5_zero, 0 };
const MODEL_SECTION(EI_MODEL_SECTION) ALIGN(16) int8_t tensor_data6[8*1*1*16] = { 
  /* [0][0][][] */ -10,-13,-18,-69,-21,-36,16,-19,42,5,-31,-4,109,127,-14,-99, 
  /* [1][0][][] */ 127,-56,-43,18,-45,70,-66,-38,-41,80,-36,-53,-12,2,-59,-12, 
  /* [2][0][][] */ -38,-89,37,41,44,-58,-71,-18,27,-85,22,-127,42,-23,-76,24, 
  /* [3][0][][] */ 36,14,15,20,-14,73,-52,-20,127,48,13,24,2,-16,13,18, 
  /* [4][0][][] */ -102,-36,-23,-127,-12,46,51,-123,28,-18,-49,-40,-124,32,-41,-19, 
  /* [5][0][][] */ 87,48,72,-29,45,-47,-125,-127,-17,-73,66,49,-59,52,60,-45, 
  /* [6][0][][] */ 108,41,-127,-80,31,-74,3,-91,-42,19,-119,87,88,-86,7,80, 
  /* [7][0][][] */ -127,-6,97,-28,-61,2,-1,-57,-51,59,83,-33,61,-29,34,27, 
};
const TfArray<4, int> tensor_dimension6 = { 4, { 8,1,1,16 } };
const TfArray<8, float> quant6_scale = { 8, { 0.0072719226591289043, 0.010812032036483288, 0.0076792300678789616, 0.010915234684944153, 0.0090286610648036003, 0.0070003969594836235, 0.0083531774580478668, 0.012108457274734974, } };
const TfArray<8, int> quant6_zero = { 8, { 0,0,0,0,0,0,0,0 } };
const TfLiteAffineQuantization quant6 = { (TfLiteFloatArray*)&quant6_scale, (TfLiteIntArray*)&quant6_zero, 0 };
const MODEL_SECTION(EI_MODEL_SECTION) ALIGN(16) int32_t tensor_data7[8] = { -7398, -3098, 11944, -10372, 24437, 7551, -8204, 11373, };
const TfArray<1, int> tensor_dimension7 = { 1, { 8 } };
const TfArray<8, float> quant7_scale = { 8, { 0.00017110406770370901, 0.00025440077297389507, 0.00018068776989821345, 0.00025682905106805265, 0.00021243908850010484, 0.00016471522394567728, 0.00019654535572044551, 0.00028490487602539361, } };
const TfArray<8, int> quant7_zero = { 8, { 0,0,0,0,0,0,0,0 } };
const TfLiteAffineQuantization quant7 = { (TfLiteFloatArray*)&quant7_scale, (TfLiteIntArray*)&quant7_zero, 0 };
const MODEL_SECTION(EI_MODEL_SECTION) ALIGN(16) int8_t tensor_data8[48*1*1*8] = { 
  /* [0][0][][] */ -38,26,6,-20,-85,-38,-127,27, 
  /* [1][0][][] */ 85,-76,-46,-61,127,-85,100,23, 
  /* [2][0][][] */ -102,127,-46,-126,53,-16,-27,37, 
  /* [3][0][][] */ 54,22,95,15,97,127,124,-9, 
  /* [4][0][][] */ -61,-127,87,10,-49,-125,13,-45, 
  /* [5][0][][] */ 127,-28,71,69,-71,-11,-1,-26, 
  /* [6][0][][] */ 21,35,127,-30,40,-39,-39,28, 
  /* [7][0][][] */ 30,12,-127,-31,-37,100,94,-71, 
  /* [8][0][][] */ -4,127,-53,12,74,127,51,59, 
  /* [9][0][][] */ -15,124,-64,72,22,-127,45,127, 
  /* [10][0][][] */ 13,-127,-8,-23,-77,-111,-61,-78, 
  /* [11][0][][] */ -127,-86,112,53,-11,-65,104,64, 
  /* [12][0][][] */ -31,38,-127,74,30,-51,-81,97, 
  /* [13][0][][] */ 91,-127,92,81,7,33,34,-54, 
  /* [14][0][][] */ -29,99,-41,-127,-34,-108,-31,-68, 
  /* [15][0][][] */ 40,106,30,-20,34,-58,96,-127, 
  /* [16][0][][] */ -116,-127,-66,95,-50,18,-20,79, 
  /* [17][0][][] */ -27,-102,-127,76,-54,72,-58,83, 
  /* [18][0][][] */ -101,-66,-48,79,-9,52,-16,127, 
  /* [19][0][][] */ 64,-127,91,-118,14,-60,32,-33, 
  /* [20][0][][] */ -3,73,36,10,41,127,76,-10, 
  /* [21][0][][] */ 25,117,44,-36,39,-73,97,-127, 
  /* [22][0][][] */ 18,11,97,18,-6,127,32,-31, 
  /* [23][0][][] */ -118,-61,37,-87,106,112,-65,-127, 
  /* [24][0][][] */ -102,-92,44,-106,120,97,-47,-127, 
  /* [25][0][][] */ 127,9,-61,-10,12,33,-64,-10, 
  /* [26][0][][] */ -122,-39,-127,-21,-55,-26,17,1, 
  /* [27][0][][] */ 77,28,-2,-60,-127,-23,87,90, 
  /* [28][0][][] */ -127,-102,19,47,-80,-126,12,5, 
  /* [29][0][][] */ 127,99,54,-108,20,16,-66,-98, 
  /* [30][0][][] */ -87,-65,44,-67,77,84,-49,-127, 
  /* [31][0][][] */ 48,42,-6,127,5,-68,11,10, 
  /* [32][0][][] */ -23,127,-6,41,29,74,-12,48, 
  /* [33][0][][] */ -30,127,-69,22,22,-33,-24,-5, 
  /* [34][0][][] */ -127,-124,-33,125,-27,20,23,113, 
  /* [35][0][][] */ -50,127,-32,-9,70,98,55,65, 
  /* [36][0][][] */ 64,39,8,-55,-127,-38,109,111, 
  /* [37][0][][] */ -60,104,23,17,-127,101,-22,-100, 
  /* [38][0][][] */ 41,30,37,10,127,63,110,45, 
  /* [39][0][][] */ -26,-71,39,-28,12,42,-103,127, 
  /* [40][0][][] */ -72,-66,-74,127,-30,-5,11,62, 
  /* [41][0][][] */ 127,11,45,108,-52,-3,-4,-13, 
  /* [42][0][][] */ -47,6,-77,-127,54,-109,3,87, 
  /* [43][0][][] */ 24,-3,85,-5,38,127,85,9, 
  /* [44][0][][] */ -34,-23,-71,127,48,11,-43,-36, 
  /* [45][0][][] */ 70,127,94,-95,52,-67,7,-124, 
  /* [46][0][][] */ -36,-127,-48,31,-9,36,-63,117, 
  /* [47][0][][] */ 48,33,106,10,81,124,127,-18, 
};
const TfArray<4, int> tensor_dimension8 = { 4, { 48,1,1,8 } };
const TfArray<48, float> quant8_scale = { 48, { 0.0042940950952470303, 0.0043424018658697605, 0.0027649297844618559, 0.0030771738383919001, 0.00063901313114911318, 0.0030360808596014977, 0.005715514998883009, 0.0022433300036936998, 0.003124855924397707, 0.0050565348938107491, 0.0036289973650127649, 0.0027358403895050287, 0.0021849470213055611, 0.0035290350206196308, 0.0027726630214601755, 0.0033403676934540272, 0.0024810913018882275, 0.00086928432574495673, 0.0025761087890714407, 0.003510328009724617, 0.0041468688286840916, 0.0018515668343752623, 0.0046346373856067657, 0.0032961657270789146, 0.0048668901436030865, 0.0070931822992861271, 0.0037360712885856628, 0.0092146676033735275, 0.0025744079612195492, 0.00068567163543775678, 0.003509770380333066, 0.0085665928199887276, 0.0040579200722277164, 0.0039725815877318382, 0.0028379573486745358, 0.0037366263568401337, 0.004110332578420639, 0.0062011927366256714, 0.0039362781681120396, 0.0049732113257050514, 0.0033359546214342117, 0.00311274453997612, 0.0031349672935903072, 0.0046769143082201481, 0.0039229146204888821, 0.0024079661816358566, 0.0027168791275471449, 0.0033287566620856524, } };
const TfArray<48, int> quant8_zero = { 48, { 0,0,0,0,0,0,0,0,0,0,0,0,0,0,0,0,0,0,0,0,0,0,0,0,0,0,0,0,0,0,0,0,0,0,0,0,0,0,0,0,0,0,0,0,0,0,0,0 } };
const TfLiteAffineQuantization quant8 = { (TfLiteFloatArray*)&quant8_scale, (TfLiteIntArray*)&quant8_zero, 0 };
const MODEL_SECTION(EI_MODEL_SECTION) ALIGN(16) int32_t tensor_data9[48] = { 1148, -369, -343, 1172, 15200, 2005, -406, 3837, 1137, 1298, 327, 3119, 1078, 448, -1014, 457, 2811, 10434, 2949, -743, 1010, -1498, -97, 2191, -204, -723, 1283, -67, 2888, 14174, 2049, -53, 499, -45, 2383, 16, 562, -216, 1142, 1199, 1662, 2085, 173, -231, 690, 2082, 1303, -162, };
const TfArray<1, int> tensor_dimension9 = { 1, { 48 } };
const TfArray<48, float> quant9_scale = { 48, { 0.000447179249022156, 0.00045220981701277196, 0.00028793475939892232, 0.00032045127591118217, 6.6545668232720345e-05, 0.00031617193599231541, 0.00059520330978557467, 0.00023361630155704916, 0.00032541679684072733, 0.00052657834021374583, 0.00037791719660162926, 0.00028490542899817228, 0.00022753640951123089, 0.00036750728031620383, 0.0002887400914914906, 0.00034785980824381113, 0.00025837632711045444, 9.0525689302012324e-05, 0.00026827128021977842, 0.00036555918632075191, 0.00043184738024137914, 0.00019281879940535873, 0.00048264270299114287, 0.00034325668821111321, 0.00050682906294241548, 0.00073867110768333077, 0.00038906765985302627, 0.00095959869213402271, 0.00026809415430761874, 7.1404596383217722e-05, 0.00036550109507516026, 0.00089210941223427653, 0.00042258441681042314, 0.00041369741666130722, 0.00029553970671258867, 0.00038912546006031334, 0.00042804254917427897, 0.00064578093588352203, 0.00040991685818880796, 0.00051790120778605342, 0.00034740025876089931, 0.00032415555324405432, 0.00032646980253048241, 0.0004870453558396548, 0.00040852520032785833, 0.0002507612225599587, 0.00028293085051700473, 0.00034665066050365567, } };
const TfArray<48, int> quant9_zero = { 48, { 0,0,0,0,0,0,0,0,0,0,0,0,0,0,0,0,0,0,0,0,0,0,0,0,0,0,0,0,0,0,0,0,0,0,0,0,0,0,0,0,0,0,0,0,0,0,0,0 } };
const TfLiteAffineQuantization quant9 = { (TfLiteFloatArray*)&quant9_scale, (TfLiteIntArray*)&quant9_zero, 0 };
const MODEL_SECTION(EI_MODEL_SECTION) ALIGN(16) int8_t tensor_data10[1*3*3*48] = { 
  /* [0][0][][] */ -47,-81,-17,-17,127,-64,66,-68,-84,-76,-20,-52,116,34,66,-127,51,-14,0,-48,-106,124,8,21,-33,72,46,-26,85,-68,16,-44,-104,-59,45,72,10,68,115,-63,-125,-20,37,72,46,-123,81,90, -80,-93,-73,62,-89,113,69,-74,-65,30,67,-113,127,94,74,-85,-73,-75,29,-57,-116,122,-73,113,-81,94,82,-127,99,-42,12,-113,-52,-64,81,127,107,98,127,-59,-127,-63,59,95,85,127,84,73, 4,-33,-65,107,-47,-32,15,-12,81,24,49,-82,27,64,-41,-4,-79,-23,30,-50,-41,25,-93,-4,-65,45,17,-81,34,55,108,-83,16,9,-8,37,92,74,48,-2,-25,97,62,35,35,32,12,-120, 
  /* [0][1][][] */ -94,-57,-26,-80,-80,-88,83,-121,-127,-127,72,-68,108,51,-125,-79,127,-127,-61,-74,-118,121,-54,16,-24,91,89,-31,-106,-71,4,-52,-93,-127,-127,68,39,94,0,-91,56,-20,63,108,91,121,125,-127, -118,-127,-127,-109,-18,127,127,-127,77,61,127,-127,115,127,61,-103,48,-95,-127,-127,-127,127,-127,127,-127,127,127,-123,-127,127,-10,-127,-127,-102,50,117,127,127,-11,-127,98,-111,127,127,127,6,127,112, -33,-67,-103,127,81,-51,41,-32,63,25,24,-71,23,66,67,-60,-24,3,-20,-46,-37,38,-71,-4,-112,44,31,-85,-48,39,127,-87,-64,8,64,62,91,70,-23,-40,43,127,88,14,47,-45,18,23, 
  /* [0][2][][] */ -119,-43,2,17,-39,-32,18,-52,11,-45,20,-39,-3,24,-51,-7,-69,-19,94,-14,-27,53,-59,-9,5,45,55,-18,39,56,-4,-8,-16,-67,-42,31,8,9,-65,-35,17,-6,30,32,20,57,18,-61, -127,-48,-46,-83,94,44,46,-58,81,15,-37,-73,-15,46,-127,-65,41,3,55,-63,-57,5,-69,62,-66,47,72,-38,38,12,-22,-35,-75,-25,-63,48,26,13,-118,-65,23,-46,88,62,43,-106,28,5, -53,-35,-53,-30,-21,-18,5,-19,-70,9,-9,-28,-6,12,41,-38,27,38,-3,-56,-35,10,-6,-29,-34,10,23,-23,4,-62,45,-29,-86,11,20,45,30,22,-63,-25,6,44,31,17,10,-12,14,41, 
};
const TfArray<4, int> tensor_dimension10 = { 4, { 1,3,3,48 } };
const TfArray<48, float> quant10_scale = { 48, { 0.0037293352652341127, 0.0052988659590482712, 0.0074823880568146706, 0.0054071829654276371, 0.027867114171385765, 0.0091765616089105606, 0.0068070092238485813, 0.0033681977074593306, 0.0054513197392225266, 0.0044019692577421665, 0.0032143997959792614, 0.0019176966743543744, 0.0035760886967182159, 0.0028454824350774288, 0.00968158058822155, 0.0088406093418598175, 0.0049657342024147511, 0.015332379378378391, 0.0050527653656899929, 0.0070271110162138939, 0.0045477091334760189, 0.01869373582303524, 0.005873494315892458, 0.010573829524219036, 0.0058116456493735313, 0.0028526855167001486, 0.0027454469818621874, 0.0042784279212355614, 0.0069614010863006115, 0.035588677972555161, 0.012211943976581097, 0.0035487343557178974, 0.0039330176077783108, 0.0075722304172813892, 0.0061877989210188389, 0.0024692479055374861, 0.0045439698733389378, 0.0027400883845984936, 0.0049152066931128502, 0.0034617597702890635, 0.0057257567532360554, 0.0082624917849898338, 0.0034054373390972614, 0.0039245747029781342, 0.0035041738301515579, 0.011164221912622452, 0.0030524146277457476, 0.0069405818358063698, } };
const TfArray<48, int> quant10_zero = { 48, { 0,0,0,0,0,0,0,0,0,0,0,0,0,0,0,0,0,0,0,0,0,0,0,0,0,0,0,0,0,0,0,0,0,0,0,0,0,0,0,0,0,0,0,0,0,0,0,0 } };
const TfLiteAffineQuantization quant10 = { (TfLiteFloatArray*)&quant10_scale, (TfLiteIntArray*)&quant10_zero, 3 };
const MODEL_SECTION(EI_MODEL_SECTION) ALIGN(16) int32_t tensor_data11[48] = { 13950, 6264, 5361, -319, -275, 163, -839, 37031, 105, 3127, 6216, 64810, 1700, 2772, 465, 11076, -1317, 12922, 1044, 6801, 14688, 456, 4386, -10380, 11503, 2483, 848, 13431, -482, -2206, -9573, 10579, 4377, 2474, -857, 6753, -9610, 4196, -637, 17594, -659, -55, 3183, 405, 204, -2195, 1139, -821, };
const TfArray<1, int> tensor_dimension11 = { 1, { 48 } };
const TfArray<48, float> quant11_scale = { 48, { 8.7749067461118102e-05, 0.00012467919441405684, 0.00017605618631932884, 0.00012722783139906824, 0.00065569684375077486, 0.00021591910626739264, 0.00016016492736525834, 7.9251709394156933e-05, 0.00012826634338125587, 0.00010357575229136273, 7.5632939115166664e-05, 4.5122276787878945e-05, 8.4143262938596308e-05, 6.6952532506547868e-05, 0.00022780189465265721, 0.00020801434584427625, 0.00011684080527629703, 0.00036076188553124666, 0.00011888860171893612, 0.00016534379392396659, 0.00010700492566684261, 0.0004398526216391474, 0.00013819987361785024, 0.00024879598640836775, 0.00013674460933543742, 6.7122011387255043e-05, 6.4598752942401916e-05, 0.00010066889080917463, 0.00016379768203478307, 0.00083738064859062433, 0.00028733987710438669, 8.3499631728045642e-05, 9.2541595222428441e-05, 0.00017817012849263847, 0.00014559527335222811, 5.8099951274925843e-05, 0.00010691693751141429, 6.4472667872905731e-05, 0.00011565192107809708, 8.1453174061607569e-05, 0.00013472369755618274, 0.00019441157928667963, 8.0127938417717814e-05, 9.2342932475730777e-05, 8.2451151683926582e-05, 0.00026268759393133223, 7.1821523306425661e-05, 0.00016330780636053532, } };
const TfArray<48, int> quant11_zero = { 48, { 0,0,0,0,0,0,0,0,0,0,0,0,0,0,0,0,0,0,0,0,0,0,0,0,0,0,0,0,0,0,0,0,0,0,0,0,0,0,0,0,0,0,0,0,0,0,0,0 } };
const TfLiteAffineQuantization quant11 = { (TfLiteFloatArray*)&quant11_scale, (TfLiteIntArray*)&quant11_zero, 0 };
const MODEL_SECTION(EI_MODEL_SECTION) ALIGN(16) int8_t tensor_data12[8*1*1*48] = { 
  /* [0][0][][] */ -45,0,35,9,-34,-17,9,9,-40,-6,-69,-58,-24,-67,-7,-34,48,-42,41,41,-16,34,-38,11,2,-39,58,-17,-4,-21,17,9,84,39,38,-127,14,-2,-16,-36,11,-16,45,49,37,5,29,2, 
  /* [1][0][][] */ -5,37,66,-26,-12,46,-47,-26,2,25,-22,-95,14,84,-17,58,-24,20,-22,-65,9,-82,-31,25,-77,-16,-6,-115,-30,-11,38,-50,50,76,-49,11,127,-32,-3,48,-28,46,-86,-33,114,-23,-36,-36, 
  /* [2][0][][] */ -5,-24,-60,16,-4,44,24,1,-7,41,-4,26,66,-91,21,-58,33,-88,22,26,-24,47,-8,28,-20,56,-20,-70,19,2,16,-66,-48,-87,35,-30,99,27,-10,-58,1,30,78,25,127,13,22,21, 
  /* [3][0][][] */ -4,24,-68,41,16,-37,-69,-103,13,-19,-35,1,7,28,32,79,-3,13,-34,20,2,-94,26,-61,-69,-7,127,-15,-48,4,-64,15,-2,-80,14,-11,-18,-37,-19,99,-42,-33,-2,20,40,8,-36,44, 
  /* [4][0][][] */ -28,-50,-8,9,33,-27,-13,-11,30,-30,60,-75,4,31,10,9,-15,-23,11,-13,-2,-53,4,-18,17,-9,42,48,35,20,-15,29,-14,-7,-1,-3,-70,85,33,-23,34,-17,-18,-25,-75,12,127,10, 
  /* [5][0][][] */ 44,-18,1,14,29,-44,38,-127,28,-27,-12,122,-82,71,25,-69,-10,-87,18,4,-34,72,-34,-45,-61,83,-27,7,-27,55,-42,-36,25,53,32,-3,-38,-9,-48,-47,18,-39,-49,-6,-35,54,94,21, 
  /* [6][0][][] */ 58,-26,19,-12,-38,-20,-37,21,-40,8,-40,127,-44,-38,-2,55,9,48,14,38,42,-84,-20,25,21,38,-65,8,11,-43,16,40,7,20,-19,0,12,-2,-5,-3,-10,-17,44,57,-4,-35,72,-12, 
  /* [7][0][][] */ -30,8,-3,67,31,35,4,30,24,2,71,-5,123,111,64,52,47,43,-12,2,24,-21,-85,-22,16,-3,-28,62,31,-26,-36,-21,41,13,42,-94,-79,40,40,52,-31,37,84,127,-58,-32,-106,66, 
};
const TfArray<4, int> tensor_dimension12 = { 4, { 8,1,1,48 } };
const TfArray<8, float> quant12_scale = { 8, { 0.0099112680181860924, 0.0059465477243065834, 0.00635561253875494, 0.0055168988183140755, 0.0087523376569151878, 0.0065115746110677719, 0.0085462303832173347, 0.0054987813346087933, } };
const TfArray<8, int> quant12_zero = { 8, { 0,0,0,0,0,0,0,0 } };
const TfLiteAffineQuantization quant12 = { (TfLiteFloatArray*)&quant12_scale, (TfLiteIntArray*)&quant12_zero, 0 };
const MODEL_SECTION(EI_MODEL_SECTION) ALIGN(16) int32_t tensor_data13[8] = { 7559, 16605, -4926, 7420, -1002, 3492, -12121, -19174, };
const TfArray<1, int> tensor_dimension13 = { 1, { 8 } };
const TfArray<8, float> quant13_scale = { 8, { 0.00023320631589740515, 0.00013991877494845539, 0.00014954383368603885, 0.0001298093848163262, 0.00020593736553564668, 0.00015321352111641318, 0.00020108777971472591, 0.00012938308645971119, } };
const TfArray<8, int> quant13_zero = { 8, { 0,0,0,0,0,0,0,0 } };
const TfLiteAffineQuantization quant13 = { (TfLiteFloatArray*)&quant13_scale, (TfLiteIntArray*)&quant13_zero, 0 };
const MODEL_SECTION(EI_MODEL_SECTION) ALIGN(16) int8_t tensor_data14[48*1*1*8] = { 
  /* [0][0][][] */ 82,127,-80,-103,17,99,20,82, 
  /* [1][0][][] */ 54,-83,53,-127,-52,82,-90,-40, 
  /* [2][0][][] */ -33,127,120,50,111,-4,43,7, 
  /* [3][0][][] */ 92,52,-99,56,-19,-95,-127,-26, 
  /* [4][0][][] */ -49,43,12,-72,-46,111,127,45, 
  /* [5][0][][] */ 27,79,-127,-85,40,88,29,-29, 
  /* [6][0][][] */ 3,127,71,48,72,5,5,-85, 
  /* [7][0][][] */ 127,-25,-32,31,27,10,106,19, 
  /* [8][0][][] */ 68,127,61,104,124,87,115,-101, 
  /* [9][0][][] */ 58,95,-127,-99,13,87,-1,61, 
  /* [10][0][][] */ -67,-43,20,-50,-3,-32,-40,127, 
  /* [11][0][][] */ 14,-103,-127,-12,26,-13,47,-2, 
  /* [12][0][][] */ -7,-113,-109,-15,-127,34,-40,65, 
  /* [13][0][][] */ -7,7,-106,98,-127,-26,-3,-19, 
  /* [14][0][][] */ -66,-50,-127,-8,35,-2,-16,-59, 
  /* [15][0][][] */ 16,-97,-127,17,-109,-26,-31,-14, 
  /* [16][0][][] */ 127,-67,-15,60,-76,21,25,98, 
  /* [17][0][][] */ -30,105,127,-27,-46,-7,-25,-18, 
  /* [18][0][][] */ 18,-127,35,65,2,-60,59,-72, 
  /* [19][0][][] */ 127,-44,-61,35,-108,10,42,95, 
  /* [20][0][][] */ -26,-127,82,76,-14,-87,-2,-72, 
  /* [21][0][][] */ 0,-73,-19,-45,127,-10,53,19, 
  /* [22][0][][] */ -127,27,-75,39,48,52,-90,-101, 
  /* [23][0][][] */ -86,-58,60,-1,-111,127,105,-55, 
  /* [24][0][][] */ -34,42,-8,-44,-39,127,123,3, 
  /* [25][0][][] */ -39,-85,-127,-59,-48,-14,-30,-34, 
  /* [26][0][][] */ -13,67,-15,127,-97,34,-52,2, 
  /* [27][0][][] */ 18,-127,35,78,11,-54,4,-123, 
  /* [28][0][][] */ 32,127,58,32,126,-20,16,-57, 
  /* [29][0][][] */ 113,33,-34,0,97,-127,-118,40, 
  /* [30][0][][] */ 21,-1,35,-127,24,-28,21,-18, 
  /* [31][0][][] */ 44,-38,6,60,-11,32,12,127, 
  /* [32][0][][] */ -96,-78,15,-76,-61,127,71,113, 
  /* [33][0][][] */ -32,48,46,-42,40,127,-116,77, 
  /* [34][0][][] */ 20,127,-73,-54,38,58,-65,66, 
  /* [35][0][][] */ 24,-127,37,60,-32,-61,42,-71, 
  /* [36][0][][] */ -18,-32,-77,-8,-127,-54,-18,18, 
  /* [37][0][][] */ -48,-127,75,95,-35,-97,-18,-44, 
  /* [38][0][][] */ -74,29,68,-73,-127,-90,-64,87, 
  /* [39][0][][] */ 65,-127,84,46,-14,-63,-18,-75, 
  /* [40][0][][] */ -3,63,21,43,-127,-8,-57,26, 
  /* [41][0][][] */ 114,127,-86,-120,51,15,-4,11, 
  /* [42][0][][] */ -13,-32,-18,17,127,16,50,23, 
  /* [43][0][][] */ 127,20,78,26,-70,-26,68,98, 
  /* [44][0][][] */ 92,21,-22,23,84,-117,-127,21, 
  /* [45][0][][] */ 52,8,20,21,76,-127,-1,-38, 
  /* [46][0][][] */ 57,-36,-6,127,43,61,23,76, 
  /* [47][0][][] */ -78,-87,50,72,-48,6,127,-67, 
};
const TfArray<4, int> tensor_dimension14 = { 4, { 48,1,1,8 } };
const TfArray<48, float> quant14_scale = { 48, { 0.0024672457948327065, 0.0028112346772104502, 0.0010405764915049076, 0.0030267755500972271, 0.0033372160978615284, 0.0031165971886366606, 0.0022050251718610525, 0.00096053932793438435, 0.0018923219759017229, 0.0030572055839002132, 0.003762225853279233, 0.0034644585102796555, 0.00079590489622205496, 0.0032950753811746836, 0.0036869682371616364, 0.00082832342013716698, 0.0040445090271532536, 0.0033312500454485416, 0.00377495470456779, 0.00283467723056674, 0.0026072775945067406, 0.0027068951167166233, 0.0046339118853211403, 0.00063922477420419455, 0.0020624781027436256, 0.0025407662615180016, 0.0011139957932755351, 0.0033406708389520645, 0.0020320925395935774, 0.0019776122644543648, 0.0072816065512597561, 0.0050400714389979839, 0.0042385128326714039, 0.0028237923979759216, 0.0036472666542977095, 0.0037049523089081049, 0.0028992109000682831, 0.0035078446380794048, 0.0032687138300389051, 0.0028314115479588509, 0.0026254246477037668, 0.0029404524248093367, 0.0026835741009563208, 0.0023001439403742552, 0.0022851023823022842, 0.0036366288550198078, 0.0040264581330120564, 0.0019329849164932966, } };
const TfArray<48, int> quant14_zero = { 48, { 0,0,0,0,0,0,0,0,0,0,0,0,0,0,0,0,0,0,0,0,0,0,0,0,0,0,0,0,0,0,0,0,0,0,0,0,0,0,0,0,0,0,0,0,0,0,0,0 } };
const TfLiteAffineQuantization quant14 = { (TfLiteFloatArray*)&quant14_scale, (TfLiteIntArray*)&quant14_zero, 0 };
const MODEL_SECTION(EI_MODEL_SECTION) ALIGN(16) int32_t tensor_data15[48] = { 3528, 3893, 12634, 1344, 2070, -1868, 5138, 13513, 4439, -908, 3019, -1910, 17319, -2044, 1665, 17488, -420, 1750, 118, 2929, 3605, 3879, 488, 23685, 5495, 3050, 12549, 1718, 5531, 5345, 545, 1109, 612, 2031, -225, 346, -2609, -603, 2458, 2668, 4160, 2330, 4267, 4994, 4515, 2788, 2136, 5783, };
const TfArray<1, int> tensor_dimension15 = { 1, { 48 } };
const TfArray<48, float> quant15_scale = { 48, { 0.00018066186748910695, 0.00020585014135576785, 7.6195283327251673e-05, 0.00022163293033372611, 0.00024436466628685594, 0.00022821004677098244, 0.00016146099369507283, 7.0334630436263978e-05, 0.00013856358418706805, 0.0002238611486973241, 0.00027548562502488494, 0.00025368187925778329, 5.8279423683416098e-05, 0.00024127894721459597, 0.0002699749602470547, 6.0653241234831512e-05, 0.00029615554376505315, 0.00024392780323978513, 0.00027641767519526184, 0.00020756669982802123, 0.00019091556896455586, 0.00019820997840724885, 0.00033931405050680041, 4.6806660975562409e-05, 0.00015102310862857848, 0.00018604533397592604, 8.1571342889219522e-05, 0.00024461763678118587, 0.00014879816444590688, 0.00014480888785328716, 0.00053318910067901015, 0.00036905473098158836, 0.00031036129803396761, 0.00020676967687904835, 0.00026706783683039248, 0.00027129182126373053, 0.00021229212870821357, 0.00025685879518277943, 0.00023934865021146834, 0.0002073275827569887, 0.00019224437710363418, 0.00021531200036406517, 0.0001965023111552, 0.00016842597688082606, 0.00016732457152102143, 0.00026628890191204846, 0.00029483379330486059, 0.00014154109521768987, } };
const TfArray<48, int> quant15_zero = { 48, { 0,0,0,0,0,0,0,0,0,0,0,0,0,0,0,0,0,0,0,0,0,0,0,0,0,0,0,0,0,0,0,0,0,0,0,0,0,0,0,0,0,0,0,0,0,0,0,0 } };
const TfLiteAffineQuantization quant15 = { (TfLiteFloatArray*)&quant15_scale, (TfLiteIntArray*)&quant15_zero, 0 };
const MODEL_SECTION(EI_MODEL_SECTION) ALIGN(16) int8_t tensor_data16[1*3*3*48] = { 
  /* [0][0][][] */ 12,-42,8,10,-21,-107,-33,65,-32,-9,-8,15,38,4,-16,2,98,19,30,6,3,-25,-65,19,-1,-15,0,-28,-66,71,-10,-113,50,-7,-49,-55,-4,-36,10,-4,-15,34,7,5,-10,77,127,-24, -127,-91,-24,127,-71,68,-88,127,20,7,19,0,44,30,-4,-44,-31,46,31,1,12,127,16,127,127,-34,-46,43,71,-127,-7,-76,66,-8,-41,-127,27,13,-59,-58,-127,-2,-103,-127,33,68,51,122, -16,9,11,5,-28,32,45,50,-2,-44,-1,4,-28,8,-4,8,-59,28,-73,-26,-5,-35,127,23,-57,0,5,8,20,37,14,4,-4,-19,-40,69,4,6,17,75,26,-25,21,-33,-9,38,-20,-16, 
  /* [0][1][][] */ -8,-15,-29,5,28,-120,127,-79,-11,9,27,38,127,19,-1,-35,-17,-29,24,48,56,-73,42,10,-64,127,-71,-22,127,-98,35,-127,-45,3,-51,14,12,-69,-41,12,118,127,16,-118,-63,-49,-1,85, 91,-127,127,5,127,75,-61,-52,36,127,127,-127,-99,127,127,127,127,127,127,127,127,117,6,1,112,-103,-127,111,36,126,127,-3,-127,127,127,113,-127,127,-127,-114,40,43,-127,-39,127,-127,-14,88, 16,50,-39,-3,-58,127,-104,87,98,-82,12,65,-45,17,7,-62,20,3,-125,23,25,-121,-34,-4,66,-15,-23,127,-76,-39,34,-36,-28,13,86,-26,31,-1,0,-76,112,-5,36,45,-55,98,91,-83, 
  /* [0][2][][] */ 0,29,5,-26,-4,-56,-10,10,11,6,-6,2,-8,-16,-3,-1,-46,20,1,-41,-7,-32,82,-12,-111,4,51,-27,10,1,3,25,-17,-13,-57,26,0,-17,14,52,-29,-12,12,7,-17,25,-11,1, 41,-20,-36,-32,24,38,120,-67,127,-38,-4,9,-67,-25,-24,-71,-16,117,-3,28,9,31,-25,-33,-77,63,80,-8,-103,11,-32,-23,-16,-5,-18,-1,51,-29,2,127,-118,-18,-5,50,31,61,9,-127, -14,33,4,-15,-21,-8,0,-25,-24,-28,-15,9,14,-16,-15,17,46,46,-40,-12,1,-27,-48,-13,22,-24,23,-7,-18,1,-9,7,36,-18,-21,-52,-6,9,28,36,-12,-16,11,7,-12,18,57,-52, 
};
const TfArray<4, int> tensor_dimension16 = { 4, { 1,3,3,48 } };
const TfArray<48, float> quant16_scale = { 48, { 0.011767174117267132, 0.0079574054107069969, 0.029958218336105347, 0.0099308472126722336, 0.0094552887603640556, 0.012672103010118008, 0.010509981773793697, 0.013336108066141605, 0.0044457451440393925, 0.014678562991321087, 0.010102266445755959, 0.051964271813631058, 0.019747152924537659, 0.028488978743553162, 0.017948025837540627, 0.025198327377438545, 0.0064536156132817268, 0.0027783988043665886, 0.011533203534781933, 0.014942508190870285, 0.010042905807495117, 0.011842519976198673, 0.0032869512215256691, 0.019385557621717453, 0.0073785698041319847, 0.014610269106924534, 0.020777085795998573, 0.0082174958661198616, 0.0093697449192404747, 0.015823161229491234, 0.0060714129358530045, 0.0047157644294202328, 0.0056067514233291149, 0.010009936057031155, 0.0079344911500811577, 0.012102124281227589, 0.05709553137421608, 0.017596589401364326, 0.0064662555232644081, 0.0067214197479188442, 0.0074830297380685806, 0.0066855871118605137, 0.014372126199305058, 0.0093667134642601013, 0.019465148448944092, 0.0034219573717564344, 0.0028308446053415537, 0.008241262286901474, } };
const TfArray<48, int> quant16_zero = { 48, { 0,0,0,0,0,0,0,0,0,0,0,0,0,0,0,0,0,0,0,0,0,0,0,0,0,0,0,0,0,0,0,0,0,0,0,0,0,0,0,0,0,0,0,0,0,0,0,0 } };
const TfLiteAffineQuantization quant16 = { (TfLiteFloatArray*)&quant16_scale, (TfLiteIntArray*)&quant16_zero, 3 };
const MODEL_SECTION(EI_MODEL_SECTION) ALIGN(16) int32_t tensor_data17[48] = { 140, 8304, -379, -1099, 1453, -1318, 134, -4443, -4210, 560, -5727, -164, 1118, -674, -1778, 4338, 7934, 2983, 368, -4465, -6775, 1273, 19217, -4429, -1272, -368, 4555, -6276, -429, 590, -8139, 10445, 5344, 155, 2589, 583, -1, -322, 9640, -1615, 6070, -2115, 3352, 6261, -1099, 8701, -420, 382, };
const TfArray<1, int> tensor_dimension17 = { 1, { 48 } };
const TfArray<48, float> quant17_scale = { 48, { 0.00027687469264492393, 0.00018723307584878057, 0.00070489925565198064, 0.00023366700042970479, 0.00022247739252634346, 0.00029816714231856167, 0.00024729370488785207, 0.00031379077699966729, 0.00010460577323101461, 0.00034537794999778271, 0.00023770039842929691, 0.001222688821144402, 0.00046463889884762466, 0.00067032891092821956, 0.00042230650433339179, 0.00059290183708071709, 0.00015184978838078678, 6.537409353768453e-05, 0.00027136949938721955, 0.00035158844548277557, 0.0002363036765018478, 0.0002786475233733654, 7.7340031566563994e-05, 0.0004561307723633945, 0.00017361341451760381, 0.00034377104020677507, 0.00048887263983488083, 0.0001933528546942398, 0.00022046458616387099, 0.000372309674276039, 0.0001428567775292322, 0.00011095916852355003, 0.00013192355982027948, 0.00023552791390102357, 0.00018669391283765435, 0.00028475586441345513, 0.0013434243155643344, 0.00041403740760870278, 0.00015214718587230891, 0.00015815105871297419, 0.00017607129120733589, 0.00015730793529655784, 0.00033816767972894013, 0.00022039326722733676, 0.00045800348743796349, 8.051664917729795e-05, 6.6608110500965267e-05, 0.00019391205569263548, } };
const TfArray<48, int> quant17_zero = { 48, { 0,0,0,0,0,0,0,0,0,0,0,0,0,0,0,0,0,0,0,0,0,0,0,0,0,0,0,0,0,0,0,0,0,0,0,0,0,0,0,0,0,0,0,0,0,0,0,0 } };
const TfLiteAffineQuantization quant17 = { (TfLiteFloatArray*)&quant17_scale, (TfLiteIntArray*)&quant17_zero, 0 };
const MODEL_SECTION(EI_MODEL_SECTION) ALIGN(16) int8_t tensor_data18[8*1*1*48] = { 
  /* [0][0][][] */ -38,-55,-21,-61,-2,-11,93,79,-98,-84,-38,2,-53,1,-60,31,-79,8,16,127,60,-26,16,91,69,70,28,5,-89,-58,-81,-57,-50,96,31,-51,26,-28,92,-2,23,11,2,-104,41,-31,-32,-78, 
  /* [1][0][][] */ -11,52,-23,-26,-77,62,-23,-54,-37,64,-21,21,49,45,-50,-1,-25,-119,82,-52,127,8,-64,23,56,-3,-80,57,30,-14,69,37,-37,-22,4,-16,1,105,-17,-34,64,40,-3,12,108,19,-36,60, 
  /* [2][0][][] */ -27,-37,115,6,82,-39,-12,26,-35,-4,-15,49,10,-46,-50,-127,-56,-103,-22,15,-96,24,-39,-37,-51,17,-6,-48,-43,3,-31,-10,0,-7,31,-8,23,-32,-49,4,34,-34,30,-50,-40,-46,-66,-51, 
  /* [3][0][][] */ 56,17,69,10,15,-34,28,62,-51,-26,46,-25,-67,57,-9,56,64,35,-35,31,-111,-72,127,2,9,6,-59,-41,-47,63,107,-63,2,-109,-28,43,-6,-77,-22,74,-85,-54,69,4,-99,-77,55,-1, 
  /* [4][0][][] */ 18,-21,70,-29,5,-12,-1,-6,-56,-6,-20,5,49,-78,41,-91,40,48,-4,-35,11,33,14,12,2,6,62,-16,20,26,-127,-13,-24,-17,3,13,42,-6,35,-2,-39,-10,-69,24,-17,-99,1,21, 
  /* [5][0][][] */ 26,-45,64,27,33,18,19,2,-74,-6,-46,32,36,8,14,-42,95,76,-1,-14,88,-59,127,-86,-14,47,-2,46,14,15,-39,-50,-21,-43,-41,15,47,29,66,3,-80,26,36,30,53,-21,80,-1, 
  /* [6][0][][] */ -53,56,-127,92,53,27,42,22,-25,-5,68,-77,-98,-23,-28,30,-117,29,-4,103,30,46,-87,-96,0,-25,30,78,-35,-41,-42,13,34,73,-44,-16,-16,-5,81,12,73,64,-124,-50,-36,123,-60,-35, 
  /* [7][0][][] */ 34,72,-80,14,16,56,122,74,44,81,-101,-8,-38,10,-72,-50,27,36,109,99,84,5,127,31,104,101,-56,103,-68,33,1,-67,27,-66,-18,16,3,100,-59,79,-56,54,-9,-81,79,-29,56,-44, 
};
const TfArray<4, int> tensor_dimension18 = { 4, { 8,1,1,48 } };
const TfArray<8, float> quant18_scale = { 8, { 0.0037317993119359016, 0.0047053978778421879, 0.0057537290267646313, 0.0044947471469640732, 0.0051021943800151348, 0.0049540814943611622, 0.0032646425534039736, 0.0035179045516997576, } };
const TfArray<8, int> quant18_zero = { 8, { 0,0,0,0,0,0,0,0 } };
const TfLiteAffineQuantization quant18 = { (TfLiteFloatArray*)&quant18_scale, (TfLiteIntArray*)&quant18_zero, 0 };
const MODEL_SECTION(EI_MODEL_SECTION) ALIGN(16) int32_t tensor_data19[8] = { 2356, 1452, 24066, -4570, 4882, -15558, 1232, -15571, };
const TfArray<1, int> tensor_dimension19 = { 1, { 8 } };
const TfArray<8, float> quant19_scale = { 8, { 8.7807042291387916e-05, 0.00011071524932049215, 0.00013538186613004655, 0.00010575875785434619, 0.00012005163443973288, 0.00011656662536552176, 7.6815122156403959e-05, 8.2774226029869169e-05, } };
const TfArray<8, int> quant19_zero = { 8, { 0,0,0,0,0,0,0,0 } };
const TfLiteAffineQuantization quant19 = { (TfLiteFloatArray*)&quant19_scale, (TfLiteIntArray*)&quant19_zero, 0 };
const MODEL_SECTION(EI_MODEL_SECTION) ALIGN(16) int8_t tensor_data20[48*1*1*8] = { 
  /* [0][0][][] */ 87,21,127,-41,65,95,-74,-43, 
  /* [1][0][][] */ 6,-91,-127,5,59,29,23,-4, 
  /* [2][0][][] */ -127,0,-41,-26,48,26,-77,-35, 
  /* [3][0][][] */ 45,75,127,-86,-16,-117,-11,-20, 
  /* [4][0][][] */ -127,23,-52,-34,37,6,-37,-53, 
  /* [5][0][][] */ -93,17,-43,-6,7,38,-74,-127, 
  /* [6][0][][] */ -40,-127,-108,34,96,15,10,43, 
  /* [7][0][][] */ -62,-127,-88,-84,-74,-75,15,84, 
  /* [8][0][][] */ 93,30,-9,-4,86,-90,-127,7, 
  /* [9][0][][] */ -41,57,-56,89,-62,-43,127,-29, 
  /* [10][0][][] */ -17,126,37,63,127,-23,-13,60, 
  /* [11][0][][] */ -72,-35,-16,-12,-79,90,127,1, 
  /* [12][0][][] */ 66,33,-127,33,-11,-35,-70,-16, 
  /* [13][0][][] */ 68,-27,-73,12,14,-127,-32,-16, 
  /* [14][0][][] */ -1,-81,68,4,127,-123,-61,13, 
  /* [15][0][][] */ -43,-42,-1,127,66,85,-75,32, 
  /* [16][0][][] */ 106,29,-23,17,75,-92,-127,-18, 
  /* [17][0][][] */ 54,127,53,68,41,55,23,-88, 
  /* [18][0][][] */ 44,-12,-2,-13,127,0,20,-10, 
  /* [19][0][][] */ 14,127,31,12,-117,14,24,-30, 
  /* [20][0][][] */ -37,15,59,-127,26,35,-18,101, 
  /* [21][0][][] */ -35,79,37,-127,20,40,-3,114, 
  /* [22][0][][] */ -78,-73,-93,18,-124,127,119,-23, 
  /* [23][0][][] */ 112,42,-127,20,19,-47,-78,-15, 
  /* [24][0][][] */ -44,39,5,5,-16,70,-127,105, 
  /* [25][0][][] */ -105,-55,-127,11,-63,-73,69,94, 
  /* [26][0][][] */ 48,-10,-38,-34,100,-14,127,-35, 
  /* [27][0][][] */ 127,-66,28,86,8,37,-26,90, 
  /* [28][0][][] */ 31,53,50,-20,127,-44,46,-24, 
  /* [29][0][][] */ -11,-11,-20,-44,-61,13,127,-25, 
  /* [30][0][][] */ 35,-127,-53,-66,-106,14,14,-50, 
  /* [31][0][][] */ 10,28,-7,-12,-127,5,-27,-10, 
  /* [32][0][][] */ 48,-69,-66,81,-3,-92,125,-127, 
  /* [33][0][][] */ 58,127,49,24,64,-21,-33,-21, 
  /* [34][0][][] */ -125,-25,127,-2,-22,103,89,9, 
  /* [35][0][][] */ -31,79,127,-13,-61,-75,-35,27, 
  /* [36][0][][] */ -96,8,103,-25,-13,127,78,22, 
  /* [37][0][][] */ -17,-81,-5,-127,-48,-86,73,43, 
  /* [38][0][][] */ 45,-13,92,-57,57,63,-127,13, 
  /* [39][0][][] */ -10,95,-127,-44,-19,5,26,93, 
  /* [40][0][][] */ 61,-48,17,29,2,0,5,127, 
  /* [41][0][][] */ -27,96,127,-21,40,77,-79,29, 
  /* [42][0][][] */ 68,-127,-113,-21,-125,8,6,-86, 
  /* [43][0][][] */ -8,-102,28,-76,127,-55,23,38, 
  /* [44][0][][] */ -1,117,127,17,4,50,-68,4, 
  /* [45][0][][] */ -32,37,9,70,-116,59,-127,15, 
  /* [46][0][][] */ -41,-40,61,48,-127,-120,-34,-5, 
  /* [47][0][][] */ -13,53,41,-97,-127,30,-16,54, 
};
const TfArray<4, int> tensor_dimension20 = { 4, { 48,1,1,8 } };
const TfArray<48, float> quant20_scale = { 48, { 0.0023619313724339008, 0.0033992412500083447, 0.0031363631132990122, 0.0025941855274140835, 0.002039778046309948, 0.002166330348700285, 0.0021954390686005354, 0.0017782750073820353, 0.003133303252980113, 0.0030025925952941179, 0.0024628171231597662, 0.0022089306730777025, 0.00415774155408144, 0.0034885185305029154, 0.0029579319525510073, 0.001716773840598762, 0.0032423126976937056, 0.0029501847457140684, 0.0018043663585558534, 0.0031738942489027977, 0.0035778917372226715, 0.0029099991079419851, 0.0024050753563642502, 0.002267560688778758, 0.0026780292391777039, 0.0025863850023597479, 0.0034251043107360601, 0.0026457107160240412, 0.0014849184080958366, 0.0032550930045545101, 0.0022858986631035805, 0.0019472195999696851, 0.0022667213343083858, 0.0024842564016580582, 0.0026846725959330797, 0.0030952042434364557, 0.0028796494007110596, 0.0026822483632713556, 0.0022496029268950224, 0.002130195265635848, 0.0028708854224532843, 0.0011935316724702716, 0.0016110163414850831, 0.0029050623998045921, 0.0014587013283744454, 0.0033050940837711096, 0.0022679783869534731, 0.0030098727438598871, } };
const TfArray<48, int> quant20_zero = { 48, { 0,0,0,0,0,0,0,0,0,0,0,0,0,0,0,0,0,0,0,0,0,0,0,0,0,0,0,0,0,0,0,0,0,0,0,0,0,0,0,0,0,0,0,0,0,0,0,0 } };
const TfLiteAffineQuantization quant20 = { (TfLiteFloatArray*)&quant20_scale, (TfLiteIntArray*)&quant20_zero, 0 };
const MODEL_SECTION(EI_MODEL_SECTION) ALIGN(16) int32_t tensor_data21[48] = { 2273, -1331, 674, -1970, 4549, -992, 3900, -3628, 1227, 504, 1816, 4191, 249, -388, 719, 5147, -1503, 3011, 5678, 823, -916, 2345, -898, 3996, 1905, 1740, 1143, -1212, 7221, -582, 2402, -1834, -650, 3697, -1174, 1990, 1656, 1213, 455, 4500, 2119, 8494, -3877, 1595, 6970, -3, 2906, 2246, };
const TfArray<1, int> tensor_dimension21 = { 1, { 48 } };
const TfArray<48, float> quant21_scale = { 48, { 0.00020509937894530594, 0.00029517465736716986, 0.00027234750450588763, 0.00022526727116201073, 0.00017712505359668285, 0.00018811426707543433, 0.00019064194930251688, 0.0001544173137517646, 0.00027208181563764811, 0.0002607314963825047, 0.00021385983563959599, 0.00019181349489372224, 0.00036103936145082116, 0.00030292707378976047, 0.00025685335276648402, 0.0001490768336225301, 0.00028154769097454846, 0.00025618061772547662, 0.00015668297419324517, 0.00027560655144043267, 0.00031068784301169217, 0.00025269109755754471, 0.00020884579862467945, 0.00019690465705934912, 0.000232547870837152, 0.00022458990861196071, 0.00029742048354819417, 0.00022974149032961577, 0.0001289435604121536, 0.00028265747823752463, 0.00019849704403895885, 0.00016908769612200558, 0.00019683176651597023, 0.00021572152036242187, 0.00023312475241255015, 0.00026877346681430936, 0.0002500556583981961, 0.0002329142444068566, 0.00019534528837539256, 0.00018497646669857204, 0.00024929462233558297, 0.00010364086483605206, 0.00013989333820063621, 0.00025226239813491702, 0.00012666698603425175, 0.00028699933318421245, 0.00019694092043209821, 0.00026136366068385541, } };
const TfArray<48, int> quant21_zero = { 48, { 0,0,0,0,0,0,0,0,0,0,0,0,0,0,0,0,0,0,0,0,0,0,0,0,0,0,0,0,0,0,0,0,0,0,0,0,0,0,0,0,0,0,0,0,0,0,0,0 } };
const TfLiteAffineQuantization quant21 = { (TfLiteFloatArray*)&quant21_scale, (TfLiteIntArray*)&quant21_zero, 0 };
const MODEL_SECTION(EI_MODEL_SECTION) ALIGN(16) int8_t tensor_data22[1*3*3*48] = { 
  /* [0][0][][] */ -71,47,-127,99,-93,68,-62,66,-99,-52,49,-48,71,-85,-54,-59,68,85,86,-111,82,-99,86,-88,-100,-45,67,127,-90,-50,-94,38,86,-89,51,-125,-66,-108,94,-73,-30,-79,127,-105,98,61,-86,-73, -93,77,-55,106,-75,124,-51,74,-127,-83,79,-82,85,-122,-57,-88,101,112,127,-127,91,-121,112,-127,-116,-85,81,123,34,-55,-127,104,116,-127,80,-103,-83,-114,112,-76,-87,98,126,-127,-52,127,-81,-101, -37,30,-15,20,-13,63,-14,-3,-76,-46,41,-39,46,-67,-25,-14,53,47,69,-33,45,-78,47,-53,-81,-38,32,28,118,-11,-53,49,29,-79,31,-28,-17,-49,41,-63,-103,-21,33,-52,-89,81,-43,-53, 
  /* [0][1][][] */ -111,65,-87,122,-94,118,-115,87,-95,-84,75,-93,82,-112,-65,-87,99,78,-69,-96,112,-104,91,-83,-104,-77,102,116,-127,-99,-82,6,96,23,73,-100,-100,-127,100,-98,-99,-79,84,-112,127,74,-109,-82, -127,127,-125,127,-127,127,-127,127,-120,-127,127,-127,127,-127,-127,-127,127,127,-82,-116,127,-127,127,-111,-117,-127,127,117,36,-127,-124,127,127,38,127,-127,-127,-95,127,-127,-127,127,102,-118,-88,118,-127,-127, -52,62,-108,36,-58,46,-52,84,-72,-35,65,-66,73,-69,-53,-14,83,64,-53,-16,40,-76,58,-58,-127,-42,43,49,104,-61,-89,33,59,21,62,-24,-36,-37,56,-42,-44,-48,50,-73,-112,96,-33,-62, 
  /* [0][2][][] */ -48,11,-1,59,-19,55,-70,71,-38,-53,21,-36,36,-41,-42,-38,70,23,-94,-21,38,-37,24,-16,-30,-35,32,8,-57,-44,-14,18,30,60,51,-53,-52,-63,32,-33,-101,-34,26,-116,70,21,-56,-30, -65,27,-82,64,-55,50,-72,46,-52,-56,42,-65,59,-61,-46,-60,75,47,-113,-7,24,-24,48,-40,-47,-48,34,42,1,-67,-70,10,52,79,53,-61,-64,-47,37,-50,-79,53,33,-114,-51,55,-66,-51, -46,5,-81,11,-18,7,-33,30,2,-9,16,-29,12,-7,-13,-1,44,26,-82,17,-5,17,15,-9,-34,0,25,22,50,-34,-9,5,22,39,17,-13,-14,-20,19,-1,-20,-15,1,-20,-67,49,-19,-42, 
};
const TfArray<4, int> tensor_dimension22 = { 4, { 1,3,3,48 } };
const TfArray<48, float> quant22_scale = { 48, { 0.0038967905566096306, 0.0063987388275563717, 0.0021822031121701002, 0.0064164074137806892, 0.004692156333476305, 0.0032656951807439327, 0.001932235318236053, 0.011034091003239155, 0.0047649042680859566, 0.0031661742832511663, 0.0031114730518311262, 0.0051166145130991936, 0.0032401091884821653, 0.0045679910108447075, 0.0027893991209566593, 0.0032681757584214211, 0.0039665084332227707, 0.0031403892207890749, 0.0051171719096601009, 0.0021584320347756147, 0.0035175222437828779, 0.0028841199818998575, 0.0040184343233704567, 0.004772793035954237, 0.0025426957290619612, 0.0045868712477385998, 0.0037679201923310757, 0.0020380993373692036, 0.010452836751937866, 0.0065508466213941574, 0.003714556572958827, 0.012710664421319962, 0.0051925131119787693, 0.0073398887179791927, 0.0036881556734442711, 0.0037398214917629957, 0.0036309165880084038, 0.0028399156872183084, 0.0032985438592731953, 0.00513495784252882, 0.0022616400383412838, 0.010886127129197121, 0.011118692345917225, 0.0030435547232627869, 0.0072194901295006275, 0.0018622952047735453, 0.0022686670999974012, 0.0027451612986624241, } };
const TfArray<48, int> quant22_zero = { 48, { 0,0,0,0,0,0,0,0,0,0,0,0,0,0,0,0,0,0,0,0,0,0,0,0,0,0,0,0,0,0,0,0,0,0,0,0,0,0,0,0,0,0,0,0,0,0,0,0 } };
const TfLiteAffineQuantization quant22 = { (TfLiteFloatArray*)&quant22_scale, (TfLiteIntArray*)&quant22_zero, 3 };
const MODEL_SECTION(EI_MODEL_SECTION) ALIGN(16) int32_t tensor_data23[48] = { 13630, -465, 21634, -526, 14984, -1480, 38625, 367, 11697, 29860, 2371, 24442, 965, 12110, 27726, 23416, 362, -2578, 6757, 43426, 673, 19387, 1431, 15605, 16243, 25923, -3995, -1469, -4129, 9692, 20185, -369, -1046, -434, 2740, 15814, 8281, 29471, 3878, 18295, 28114, -1133, 783, 18317, 4957, 4856, 38796, 22703, };
const TfArray<1, int> tensor_dimension23 = { 1, { 48 } };
const TfArray<48, float> quant23_scale = { 48, { 9.168919496005401e-05, 0.00015055856783874333, 5.1345956308068708e-05, 0.00015097430150490254, 0.00011040367826353759, 7.6839889516122639e-05, 4.5464359573088586e-05, 0.00025962566724047065, 0.00011211539822397754, 7.4498217145446688e-05, 7.3211129347328097e-05, 0.0001203909341711551, 7.6237862231209874e-05, 0.00010748214117484167, 6.5632921177893877e-05, 7.6898257248103619e-05, 9.3329610535874963e-05, 7.3891511419788003e-05, 0.00012040404544677585, 5.0786638894351199e-05, 8.2765232946258038e-05, 6.7861648858524859e-05, 9.4551396614406258e-05, 0.00011230101517867297, 5.982813672744669e-05, 0.00010792638204293326, 8.8656946900300682e-05, 4.7955280024325475e-05, 0.00024594910792075098, 0.00015413756773341447, 8.7401334894821048e-05, 0.00029907445423305035, 0.00012217677431181073, 0.00017270326497964561, 8.6780135461594909e-05, 8.7995802459772676e-05, 8.5433333879336715e-05, 6.6821543441619724e-05, 7.7612799941562116e-05, 0.00012082253670087084, 5.3215062507661059e-05, 0.00025614417972974479, 0.00026161628193221986, 7.1613052568864077e-05, 0.00016987035633064806, 4.3818712583743036e-05, 5.3380405006464571e-05, 6.459202995756641e-05, } };
const TfArray<48, int> quant23_zero = { 48, { 0,0,0,0,0,0,0,0,0,0,0,0,0,0,0,0,0,0,0,0,0,0,0,0,0,0,0,0,0,0,0,0,0,0,0,0,0,0,0,0,0,0,0,0,0,0,0,0 } };
const TfLiteAffineQuantization quant23 = { (TfLiteFloatArray*)&quant23_scale, (TfLiteIntArray*)&quant23_zero, 0 };
const MODEL_SECTION(EI_MODEL_SECTION) ALIGN(16) int8_t tensor_data24[16*1*1*48] = { 
  /* [0][0][][] */ 30,37,23,-27,65,63,-36,55,-19,111,0,51,-35,34,-12,51,33,83,43,-72,-71,80,-10,49,63,45,33,48,-51,-45,-10,88,-26,15,-73,47,52,-127,-36,13,12,-34,57,-2,-5,-55,-68,-18, 
  /* [1][0][][] */ -52,6,-81,-42,8,89,-56,22,-14,-37,-42,31,56,-23,-29,-28,-27,-30,-1,19,-64,42,-100,-43,-54,-41,47,69,-19,-30,40,-42,14,-49,-31,50,10,-62,127,-35,-25,34,-43,-16,34,52,27,18, 
  /* [2][0][][] */ 5,3,58,-36,-19,-80,19,21,100,73,-65,17,110,-42,127,79,-68,-20,-29,29,80,-75,-32,-93,13,-34,33,-68,35,47,-39,15,29,-27,57,40,-62,16,0,-30,33,23,61,-12,23,-78,95,-52, 
  /* [3][0][][] */ 40,1,-23,-24,41,104,16,-22,31,-48,25,-28,-57,8,6,44,-41,-67,30,-124,-12,-1,-26,-17,-40,91,127,67,0,-47,28,37,50,-27,94,42,-41,-60,0,42,28,11,-20,-5,15,19,-3,-25, 
  /* [4][0][][] */ 93,-6,10,-40,92,91,41,12,78,-13,-104,34,49,-19,16,-13,-92,-118,-28,-91,-20,20,-41,-35,-84,127,-92,113,-61,-52,32,83,40,-56,13,-29,-5,17,-23,25,-48,-13,-5,40,-52,99,-23,-54, 
  /* [5][0][][] */ -1,-5,-57,5,-13,57,16,-26,58,53,38,89,50,-27,24,-4,-31,127,-18,35,6,-3,-63,-11,33,3,-61,-32,-7,28,16,-15,-38,4,42,20,-43,1,-82,11,83,-14,25,43,-25,10,-37,35, 
  /* [6][0][][] */ 65,12,20,69,12,-31,95,-57,-2,78,123,106,45,50,-60,60,39,-48,-85,99,50,-60,-46,56,-82,96,97,-2,116,51,-38,-7,92,-73,-127,4,108,37,1,-1,16,48,55,-37,61,116,48,0, 
  /* [7][0][][] */ -94,-9,-20,21,-61,-64,25,49,88,118,-60,-76,-103,12,-15,-12,-86,100,2,127,-58,47,23,45,-15,-96,-25,-87,38,38,-2,4,-12,7,14,-17,11,-64,123,17,7,48,23,-18,49,67,-27,8, 
  /* [8][0][][] */ -11,-85,39,-55,66,-49,60,-36,-23,-113,37,12,-30,8,34,23,-1,11,-48,98,9,26,-15,29,49,-19,-70,-34,-127,-23,-46,-112,1,-63,5,85,-7,34,110,12,17,-12,68,115,-2,-65,-38,68, 
  /* [9][0][][] */ 15,-42,26,-62,44,79,-32,52,18,-37,-35,-19,20,-47,112,-18,9,-114,43,43,-67,40,59,-37,-26,-80,-27,84,64,71,-42,-22,-50,35,-5,127,-30,-45,-50,-18,-32,-4,39,102,53,83,-71,13, 
  /* [10][0][][] */ -13,23,-24,-5,17,30,-62,-39,51,38,63,-4,-31,-14,50,-46,-58,127,-3,46,4,-12,19,29,-43,41,1,88,28,5,-32,-8,69,11,-6,23,-11,-50,-34,14,-79,3,29,-18,24,44,27,30, 
  /* [11][0][][] */ -32,53,-23,36,29,62,-1,12,18,16,-127,-74,71,20,-12,-48,-4,29,-41,-47,-11,-10,110,8,45,7,-17,36,-3,24,-8,50,27,1,-46,-2,41,76,105,26,31,-30,68,-4,-54,-19,86,3, 
  /* [12][0][][] */ -60,-1,36,22,-62,-56,2,0,-39,-31,-127,18,72,-98,21,36,46,99,80,-121,-33,45,-45,-82,2,-23,36,-36,6,18,-20,73,62,75,34,-30,-51,-30,28,-3,-29,15,56,-2,36,-16,-42,-37, 
  /* [13][0][][] */ -51,-121,-34,-98,18,14,55,11,-127,33,118,-63,53,36,114,13,121,22,-5,-94,80,-77,111,0,-68,17,-17,19,-33,-101,-112,11,47,-36,-70,65,35,-61,80,-75,-17,64,68,32,46,-33,105,-62, 
  /* [14][0][][] */ 62,22,-52,-1,-37,14,-85,-25,-36,61,58,47,-14,-60,9,-50,53,-107,27,14,88,-57,22,-4,-11,127,-87,8,-48,-24,-89,-1,115,46,88,-19,-82,16,-18,60,-14,-51,100,-26,-48,-43,-51,56, 
  /* [15][0][][] */ -58,6,41,26,90,0,6,35,21,75,-14,57,58,-15,-32,-16,16,41,-5,-42,35,-30,-47,-54,60,-63,-44,61,-40,4,18,7,-52,0,127,-9,-90,16,64,-22,-38,-20,26,-3,-27,-33,-11,4, 
};
const TfArray<4, int> tensor_dimension24 = { 4, { 16,1,1,48 } };
const TfArray<16, float> quant24_scale = { 16, { 0.0068326778709888458, 0.0069143511354923248, 0.0062723355367779732, 0.0070000435225665569, 0.0050608459860086441, 0.0061142607592046261, 0.0049365414306521416, 0.0077242190018296242, 0.0055381855927407742, 0.004617766011506319, 0.0067396648228168488, 0.0061276825144886971, 0.0045576700940728188, 0.0035951649770140648, 0.0050017964094877243, 0.0055314661003649235, } };
const TfArray<16, int> quant24_zero = { 16, { 0,0,0,0,0,0,0,0,0,0,0,0,0,0,0,0 } };
const TfLiteAffineQuantization quant24 = { (TfLiteFloatArray*)&quant24_scale, (TfLiteIntArray*)&quant24_zero, 0 };
const MODEL_SECTION(EI_MODEL_SECTION) ALIGN(16) int32_t tensor_data25[16] = { -3405, 11463, -20765, 2593, 10634, -14578, -42290, -9320, -4962, 6867, -16174, -12258, 7235, -11971, -5237, -4510, };
const TfArray<1, int> tensor_dimension25 = { 1, { 16 } };
const TfArray<16, float> quant25_scale = { 16, { 0.00015897233970463276, 0.00016087258700281382, 0.00014593514788430184, 0.00016286634490825236, 0.00011774805170716718, 0.0001422572968294844, 0.00011485592403914779, 0.00017971535271499306, 0.00012885406613349915, 0.00010743914026534185, 0.00015680825163144618, 0.00014256958093028516, 0.00010604091949062422, 8.3646817074622959e-05, 0.00011637417628662661, 0.00012869772035628557, } };
const TfArray<16, int> quant25_zero = { 16, { 0,0,0,0,0,0,0,0,0,0,0,0,0,0,0,0 } };
const TfLiteAffineQuantization quant25 = { (TfLiteFloatArray*)&quant25_scale, (TfLiteIntArray*)&quant25_zero, 0 };
const MODEL_SECTION(EI_MODEL_SECTION) ALIGN(16) int8_t tensor_data26[96*1*1*16] = { 
  /* [0][0][][] */ 36,10,6,54,-127,-29,83,56,55,76,-18,23,15,-5,22,72, 
  /* [1][0][][] */ -12,26,-75,-1,127,89,6,-9,-37,13,-70,33,-38,84,-43,-31, 
  /* [2][0][][] */ -43,66,73,-4,65,86,6,38,36,-3,44,-12,52,-127,-12,11, 
  /* [3][0][][] */ 127,-31,9,11,55,44,-12,5,34,46,-61,-26,-49,56,-38,60, 
  /* [4][0][][] */ -87,-30,14,35,-102,-11,-85,-37,-6,43,-17,-56,-21,45,-46,127, 
  /* [5][0][][] */ -108,15,30,10,127,28,10,2,-51,28,-24,6,-69,67,-96,-30, 
  /* [6][0][][] */ -127,15,-32,40,-7,-67,60,24,-4,-26,-53,35,8,-8,-48,3, 
  /* [7][0][][] */ -11,95,57,-83,67,45,127,0,53,4,-8,35,85,20,-34,-3, 
  /* [8][0][][] */ -36,-29,-62,62,-36,69,-46,-67,16,-26,75,32,127,43,-97,0, 
  /* [9][0][][] */ -36,-127,-24,72,-47,-48,-2,59,38,34,17,53,-81,25,0,-22, 
  /* [10][0][][] */ -20,-51,-91,47,-112,107,62,-91,3,-48,65,-19,51,127,-58,93, 
  /* [11][0][][] */ -47,-73,-23,16,3,87,24,-23,27,23,30,-81,21,101,-97,127, 
  /* [12][0][][] */ -17,-76,-63,79,-74,-127,24,50,78,75,-39,106,-7,-65,-12,-15, 
  /* [13][0][][] */ -63,-22,-32,-2,-15,-2,33,16,-20,127,-10,-27,41,34,18,-9, 
  /* [14][0][][] */ -127,-10,-51,-56,-42,122,-39,-72,115,-58,98,35,78,-38,-55,-63, 
  /* [15][0][][] */ 8,-127,100,-64,-55,-37,-5,57,22,-47,-98,-29,83,-47,-30,-53, 
  /* [16][0][][] */ -17,-26,26,-44,21,22,-15,-24,63,-127,35,-14,-17,1,-74,-92, 
  /* [17][0][][] */ -17,18,24,-46,3,-20,-33,9,74,-75,33,70,105,-87,-45,-127, 
  /* [18][0][][] */ 70,-4,-37,-119,27,-29,127,-63,35,56,-18,56,-7,71,-4,-123, 
  /* [19][0][][] */ -34,-32,-39,-70,-127,45,-17,12,45,-51,35,-123,-9,-8,-15,4, 
  /* [20][0][][] */ 8,66,81,-87,84,1,-69,105,-116,-127,41,-99,-29,113,-35,-34, 
  /* [21][0][][] */ 9,-104,-127,-17,117,60,113,102,-113,-109,-34,25,123,-123,-24,38, 
  /* [22][0][][] */ 55,-19,80,-3,11,16,62,37,15,124,38,36,6,5,127,0, 
  /* [23][0][][] */ -105,-58,-15,51,70,51,26,-1,-12,16,-8,-76,3,71,64,127, 
  /* [24][0][][] */ 29,-17,44,16,28,-80,25,-63,-6,127,-111,85,3,-46,89,-46, 
  /* [25][0][][] */ 127,-44,98,118,43,9,-19,47,-110,82,63,-51,-13,31,77,-10, 
  /* [26][0][][] */ -20,25,7,43,-54,112,-19,39,-54,-32,-76,35,-1,21,44,-127, 
  /* [27][0][][] */ 29,-7,-6,-43,-44,-1,-80,11,-98,-26,-68,-47,-65,42,-11,127, 
  /* [28][0][][] */ -78,20,20,-4,37,0,-127,-2,6,-29,-7,-9,4,-44,-82,-41, 
  /* [29][0][][] */ -29,-121,-35,98,-36,11,127,8,72,53,-109,70,31,-21,-48,87, 
  /* [30][0][][] */ 53,-46,-57,2,-127,27,62,-41,2,4,-4,-13,-14,55,-2,78, 
  /* [31][0][][] */ -127,-11,-5,78,-44,14,-43,1,-19,-53,24,-19,-29,-37,-13,97, 
  /* [32][0][][] */ -127,-86,-91,-14,-103,-63,27,-20,127,65,-71,-85,37,38,28,-27, 
  /* [33][0][][] */ -20,21,-108,55,-127,-108,65,-25,-123,29,-67,-86,-24,109,79,79, 
  /* [34][0][][] */ 47,53,7,23,-83,-36,39,23,45,-127,-24,38,-19,0,45,93, 
  /* [35][0][][] */ 53,16,-58,-23,-127,21,101,-50,34,59,-31,-22,23,79,51,70, 
  /* [36][0][][] */ -13,-12,-63,69,127,-21,55,72,-96,6,-85,-106,35,-25,4,39, 
  /* [37][0][][] */ -125,54,-8,-59,46,-91,-61,-20,-13,-14,-15,57,45,-82,9,-127, 
  /* [38][0][][] */ 39,113,3,-78,-117,-34,-127,-50,-41,-64,57,71,-68,-69,89,1, 
  /* [39][0][][] */ 0,-46,2,81,7,87,86,-50,-18,40,22,-17,-10,127,48,120, 
  /* [40][0][][] */ 127,50,109,87,-57,-63,1,25,-76,81,-22,-25,-30,-31,111,13, 
  /* [41][0][][] */ -23,-3,12,51,-92,127,7,45,-52,23,-109,5,15,25,43,-125, 
  /* [42][0][][] */ 17,-88,29,-17,127,25,62,16,-30,-83,-92,-17,-5,-8,-1,34, 
  /* [43][0][][] */ -46,-93,-48,5,117,14,-7,87,-88,-64,-127,-93,115,0,-46,71, 
  /* [44][0][][] */ -14,-71,-56,-56,11,36,65,12,-23,-127,-58,74,-56,61,26,73, 
  /* [45][0][][] */ -7,-68,-94,-9,-127,89,-21,-66,61,-46,23,-66,5,27,-66,34, 
  /* [46][0][][] */ 34,-64,-12,-1,94,-64,-32,87,-1,-14,31,62,-47,-60,40,-127, 
  /* [47][0][][] */ -56,-37,-14,98,-1,18,3,36,8,127,74,104,-41,40,-19,71, 
  /* [48][0][][] */ 50,-8,-81,-90,35,-63,16,54,41,-78,-3,18,-60,2,-41,-127, 
  /* [49][0][][] */ 53,28,8,35,-14,-34,35,45,-17,127,-32,44,-31,-18,66,72, 
  /* [50][0][][] */ -2,-12,12,16,-127,-22,-19,-48,66,23,26,52,-26,-57,9,-4, 
  /* [51][0][][] */ 12,-6,-4,-127,-18,105,57,-57,5,9,28,-55,71,72,-33,4, 
  /* [52][0][][] */ 26,-14,8,-91,73,-113,1,-24,43,-1,127,-49,27,3,-21,100, 
  /* [53][0][][] */ -46,-51,37,-21,-46,-127,12,-97,-4,82,-89,76,-41,-6,30,-80, 
  /* [54][0][][] */ 61,64,36,-40,-127,-22,-86,-106,-22,23,52,62,-63,-54,71,7, 
  /* [55][0][][] */ 21,8,-32,64,-35,20,32,-16,11,127,17,56,3,-2,5,42, 
  /* [56][0][][] */ 40,-120,-100,80,-82,85,0,88,127,13,62,60,-26,-33,71,114, 
  /* [57][0][][] */ 42,12,102,-81,97,7,-30,11,90,-34,24,127,63,-72,89,-76, 
  /* [58][0][][] */ 74,-63,17,-68,38,17,-3,127,42,97,-12,46,48,24,82,-2, 
  /* [59][0][][] */ -60,43,18,-40,-14,-73,-22,16,6,24,-94,-96,-127,-55,76,-1, 
  /* [60][0][][] */ 32,-30,20,24,18,-10,8,-54,29,127,-13,59,-16,-26,-27,-41, 
  /* [61][0][][] */ 55,45,4,-15,-86,-127,-24,-54,-41,-21,-33,5,-67,-40,67,67, 
  /* [62][0][][] */ -15,77,-48,31,-65,127,-48,35,-47,4,-29,38,-28,37,56,-91, 
  /* [63][0][][] */ 27,-11,-65,-127,-24,-48,88,-8,-8,-101,-28,31,-37,72,42,-27, 
  /* [64][0][][] */ -30,20,13,-7,52,-68,30,85,-127,-14,-66,-13,-24,100,74,58, 
  /* [65][0][][] */ -78,-28,-55,-1,67,34,-56,-68,-117,-70,24,-30,-127,103,-70,42, 
  /* [66][0][][] */ -15,66,-20,37,-51,127,-29,34,-79,26,-18,57,-33,47,51,-92, 
  /* [67][0][][] */ 17,-31,-49,-20,1,-99,62,-92,-8,15,15,127,-63,-30,-17,-123, 
  /* [68][0][][] */ 11,-127,-36,77,-21,10,36,99,37,37,68,7,-88,31,-9,-15, 
  /* [69][0][][] */ -3,75,83,-102,55,12,-41,95,33,105,55,83,90,-102,21,-127, 
  /* [70][0][][] */ 45,21,42,-28,92,11,-101,-46,-127,-94,0,47,-34,62,-102,-4, 
  /* [71][0][][] */ -34,-90,8,-42,96,-24,27,37,-127,113,-124,-38,-2,118,-41,37, 
  /* [72][0][][] */ 19,27,79,5,-58,-33,-105,-73,-13,76,-28,68,42,127,-121,6, 
  /* [73][0][][] */ 9,-35,-24,-42,30,-121,31,-31,88,83,117,1,29,-28,-67,127, 
  /* [74][0][][] */ 6,8,-34,76,-84,-4,99,24,71,67,32,124,127,28,-59,14, 
  /* [75][0][][] */ -15,47,-22,31,-47,127,-11,18,-39,35,-41,51,-17,50,35,-71, 
  /* [76][0][][] */ -77,73,-57,45,-97,3,-6,28,49,37,-34,-43,43,-46,-127,39, 
  /* [77][0][][] */ 127,118,-116,125,91,81,79,41,64,14,100,-23,98,34,52,40, 
  /* [78][0][][] */ 10,-43,-5,-63,66,-107,36,-45,56,37,127,-11,-1,-7,-40,119, 
  /* [79][0][][] */ -39,61,7,22,2,-52,-33,-8,-127,-4,49,3,115,38,-84,-48, 
  /* [80][0][][] */ -64,45,71,-8,68,36,1,-127,-69,63,-66,-37,-8,-90,30,55, 
  /* [81][0][][] */ 89,80,-28,-5,28,-22,83,117,-117,127,-70,-44,-52,21,119,126, 
  /* [82][0][][] */ 55,102,-38,-76,6,-59,103,-88,7,27,-55,81,127,-12,75,-38, 
  /* [83][0][][] */ 10,-19,22,23,7,27,-33,-103,57,-26,90,9,41,-72,-62,-127, 
  /* [84][0][][] */ -123,-78,-50,-24,-20,109,108,-6,111,73,127,112,46,99,-88,22, 
  /* [85][0][][] */ 118,17,92,-87,71,-19,-11,89,26,98,-60,7,-38,54,127,25, 
  /* [86][0][][] */ -81,74,-36,4,25,77,17,19,85,32,127,-23,-28,64,-4,-17, 
  /* [87][0][][] */ 7,-65,20,-49,47,-127,22,-34,50,-9,76,-32,29,-45,-46,73, 
  /* [88][0][][] */ -71,65,49,-18,111,-31,43,13,-62,-63,95,-75,78,127,99,-105, 
  /* [89][0][][] */ -25,41,-20,28,-30,127,-10,39,-50,11,-38,18,-4,60,26,-81, 
  /* [90][0][][] */ 52,-86,25,26,127,-21,52,33,-14,-94,-115,-20,-1,-5,-49,36, 
  /* [91][0][][] */ -37,61,-29,-62,12,-59,-102,43,-85,30,-105,-127,-120,-79,-15,29, 
  /* [92][0][][] */ 55,48,59,39,-127,-90,25,8,-21,28,-22,-31,-27,-68,29,4, 
  /* [93][0][][] */ 2,-127,-112,65,-34,-55,-24,122,122,97,3,84,-70,76,-28,-52, 
  /* [94][0][][] */ 93,3,117,-19,25,-22,14,43,22,81,5,66,11,15,127,-6, 
  /* [95][0][][] */ -53,-35,-11,-33,127,-19,46,60,-39,7,-112,-63,28,16,-61,38, 
};
const TfArray<4, int> tensor_dimension26 = { 4, { 96,1,1,16 } };
const TfArray<96, float> quant26_scale = { 96, { 0.0043341610580682755, 0.0021971818059682846, 0.0052506900392472744, 0.0040035843849182129, 0.0029130841139703989, 0.0013586588902398944, 0.0064025488682091236, 0.0027382168918848038, 0.0017965554725378752, 0.0030012496281415224, 0.00104052375536412, 0.0025650265160948038, 0.0031662378460168839, 0.0074667865410447121, 0.0022049685940146446, 0.0021291521843522787, 0.0032123664859682322, 0.0028377005364745855, 0.0028839861042797565, 0.0012765893479809165, 0.0057006687857210636, 0.0012988591333851218, 0.0033752764575183392, 0.0029132200870662928, 0.0017270416719838977, 0.0030911345966160297, 0.0037686305586248636, 0.0053942841477692127, 0.0019661569967865944, 0.0048604155890643597, 0.0029312940314412117, 0.0023175678215920925, 0.003643035888671875, 0.0013204460265114903, 0.0024470530916005373, 0.002443983918055892, 0.0026402752846479416, 0.0037358852569013834, 0.0021592406556010246, 0.0024034350644797087, 0.00092146208044141531, 0.0034404359757900238, 0.0028705561999231577, 0.0021905493922531605, 0.0028169630095362663, 0.0014245975762605667, 0.0022464732173830271, 0.0018114775884896517, 0.0038067603018134832, 0.0038257325068116188, 0.0039639552123844624, 0.0021993361879140139, 0.0035919551737606525, 0.0030044682789593935, 0.0020457161590456963, 0.0057164984755218029, 0.0019307129550725222, 0.0014098226092755795, 0.0031554128509014845, 0.003625303041189909, 0.003570070955902338, 0.0018025649478659034, 0.0029856017790734768, 0.003617679001763463, 0.0012167558306828141, 0.0012125007342547178, 0.0040325494483113289, 0.0042512640357017517, 0.0017622086452320218, 0.0020090776961296797, 0.0041919802315533161, 0.0021020660642534494, 0.0025088354013860226, 0.002816005377098918, 0.0046076155267655849, 0.0045410771854221821, 0.0043383664451539516, 0.0017507134471088648, 0.0029321603942662477, 0.0031811441294848919, 0.0023761764168739319, 0.0022892681881785393, 0.0019336054101586342, 0.0014324876246973872, 0.0020828105043619871, 0.0016037538880482316, 0.0020076048094779253, 0.0045467810705304146, 0.0044422270730137825, 0.0047109974548220634, 0.0026684580370783806, 0.0015157420421019197, 0.0027670348063111305, 0.0019422322511672974, 0.0023667344357818365, 0.0021217686589807272, } };
const TfArray<96, int> quant26_zero = { 96, { 0,0,0,0,0,0,0,0,0,0,0,0,0,0,0,0,0,0,0,0,0,0,0,0,0,0,0,0,0,0,0,0,0,0,0,0,0,0,0,0,0,0,0,0,0,0,0,0,0,0,0,0,0,0,0,0,0,0,0,0,0,0,0,0,0,0,0,0,0,0,0,0,0,0,0,0,0,0,0,0,0,0,0,0,0,0,0,0,0,0,0,0,0,0,0,0 } };
const TfLiteAffineQuantization quant26 = { (TfLiteFloatArray*)&quant26_scale, (TfLiteIntArray*)&quant26_zero, 0 };
const MODEL_SECTION(EI_MODEL_SECTION) ALIGN(16) int32_t tensor_data27[96] = { 1483, 7155, 217, 1701, 4478, 13939, 127, 2194, 9606, -1154, 17159, 4043, 2279, 252, 4796, 903, 3868, 4578, -65, 14522, 632, 12562, -1657, 1970, -8251, 1319, 2774, 1384, 8678, 1149, 4211, 4767, 2361, 12939, 4463, 4896, 4207, 2400, 4869, 3537, 20935, 1941, 2472, 1938, 2409, 12223, 5976, 8576, 1670, -1275, 2000, 6752, 2708, -2920, 7610, 16, 3614, 13022, 1158, 1651, 2387, 9596, 4429, -501, 16071, 14827, 1931, 2705, 9123, 5065, 2240, 2245, -4611, 4770, 1540, 2548, 489, 8980, 4201, 5379, 3774, 1527, 4682, 13211, -387, 9366, 7291, 1902, -684, 2324, 1659, 12251, 3712, 4594, 4639, 6052, };
const TfArray<1, int> tensor_dimension27 = { 1, { 96 } };
const TfArray<96, float> quant27_scale = { 96, { 0.00021210119302850217, 0.00010752366506494582, 0.00025695344083942473, 0.00019592374155763537, 0.00014255783753469586, 6.6488799348007888e-05, 0.00031332205981016159, 0.00013400035095401108, 8.7918182543944567e-05, 0.00014687239308841527, 5.092019637231715e-05, 0.00012552490807138383, 0.00015494643594138324, 0.00036540275323204696, 0.00010790472879307345, 0.00010419449245091528, 0.00015720384544692934, 0.00013886878150515258, 0.00014113385987002403, 6.2472558056470007e-05, 0.00027897409745492041, 6.3562372815795243e-05, 0.00016517618496436626, 0.00014256448775995523, 8.4516381321009248e-05, 0.00015127110236790031, 0.00018442577857058495, 0.00026398053159937263, 9.6217983809765428e-05, 0.00023785456141922623, 0.00014344898227136582, 0.00011341500794515014, 0.00017827954434324056, 6.4618776377756149e-05, 0.00011975163943134248, 0.00011960144183831289, 0.00012920737208332866, 0.0001828233216656372, 0.00010566693526925519, 0.00011761709902202711, 4.5093664084561169e-05, 0.0001683649024926126, 0.00014047665172256529, 0.00010719909914769232, 0.00013785394548904151, 6.9715650170110166e-05, 0.00010993584146490321, 8.8648426753934473e-05, 0.00018629174155648798, 0.00018722018285188824, 0.00019398440781515092, 0.00010762909369077533, 0.00017577980179339647, 0.00014702991757076234, 0.00010011137783294544, 0.00027974875411018729, 9.4483460998162627e-05, 6.8992601882200688e-05, 0.000154416702571325, 0.00017741175543051213, 0.00017470885359216481, 8.8212269474752247e-05, 0.00014610664220526814, 0.00017703865887597203, 5.9544479881878942e-05, 5.9336249250918627e-05, 0.0001973411999642849, 0.00020804445375688374, 8.6237349023576826e-05, 9.8318399977870286e-05, 0.00020514328207354993, 0.00010286898032063618, 0.00012277509085834026, 0.00013780708832200617, 0.00022548326523974538, 0.0002222270704805851, 0.00021230700076557696, 8.5674808360636234e-05, 0.00014349137200042605, 0.00015567590889986604, 0.00011628313950495794, 0.00011203010217286646, 9.4625007477588952e-05, 7.0101763412822038e-05, 0.00010192667105002329, 7.8483033576048911e-05, 9.8246324341744184e-05, 0.00022250620531849563, 0.00021738963550888002, 0.00023054247139953077, 0.00013058654440101236, 7.4175994086544961e-05, 0.00013541060616262257, 9.5047180366236717e-05, 0.00011582107981666923, 0.00010383316839579493, } };
const TfArray<96, int> quant27_zero = { 96, { 0,0,0,0,0,0,0,0,0,0,0,0,0,0,0,0,0,0,0,0,0,0,0,0,0,0,0,0,0,0,0,0,0,0,0,0,0,0,0,0,0,0,0,0,0,0,0,0,0,0,0,0,0,0,0,0,0,0,0,0,0,0,0,0,0,0,0,0,0,0,0,0,0,0,0,0,0,0,0,0,0,0,0,0,0,0,0,0,0,0,0,0,0,0,0,0 } };
const TfLiteAffineQuantization quant27 = { (TfLiteFloatArray*)&quant27_scale, (TfLiteIntArray*)&quant27_zero, 0 };
const MODEL_SECTION(EI_MODEL_SECTION) ALIGN(16) int8_t tensor_data28[1*3*3*96] = { 
  /* [0][0][][] */ -20,-12,17,-33,98,-16,27,0,-4,6,-12,-31,-41,0,11,-27,-15,-1,-1,-20,-1,23,-3,33,-11,-25,-16,7,5,3,21,6,36,4,-5,-16,2,-57,-45,-24,10,-14,45,-30,-14,34,-50,-22,-25,19,-11,58,-77,5,38,-6,-3,-14,9,-23,-3,-22,8,-41,-24,-19,-33,-42,-17,31,-2,3,35,1,-1,2,-37,27,127,-16,-127,13,-106,-19,-36,-12,9,7,-52,-13,18,-43,-12,28,-9,12, -22,43,47,-71,-36,-13,127,-47,1,-3,-38,5,-66,-3,-72,54,-6,63,89,-37,-5,127,75,107,36,-13,52,80,127,42,127,-25,-64,-16,-90,-23,-11,-122,127,-38,-18,-127,-7,-60,47,-19,-43,-5,52,10,25,127,-98,18,-71,0,-81,-9,-1,24,-7,-127,-117,-11,-55,-2,-8,-78,-17,19,-69,101,-127,-22,14,-28,-127,-79,-4,-115,-103,10,31,-54,79,83,-72,32,-127,4,28,-5,7,127,-35,-82, -46,11,-4,-18,57,-15,41,-27,-18,13,-12,-5,-18,5,0,-45,-13,-10,-17,-30,-2,2,14,20,3,6,7,-9,12,11,8,16,18,3,-20,45,1,-101,-45,20,2,23,22,-21,-29,-27,-65,-24,-5,5,-1,31,14,-16,20,-10,52,-18,12,-23,-7,-11,-44,-35,-7,-29,127,-3,-13,23,-8,-7,2,-3,11,21,-14,45,-32,-19,-124,6,-101,-17,0,-26,17,-16,-94,-31,-7,42,12,28,5,6, 
  /* [0][1][][] */ -61,-14,17,-70,42,87,-45,-16,-4,-16,-24,-26,-95,20,32,55,-22,37,115,22,31,-24,119,-33,44,8,73,12,-16,5,-16,-17,-127,-14,70,-12,-8,-96,-56,-127,-12,-5,99,-27,-80,127,-103,-80,50,63,16,-47,-117,58,66,-22,11,-34,36,-16,10,-10,98,-108,-45,15,-32,-44,-15,-4,-127,14,77,124,15,-80,-105,-51,-71,-32,-89,0,-9,-69,35,13,-106,70,-67,127,76,-90,127,0,-51,-12, 92,127,127,127,-127,-127,81,-54,127,127,-76,-77,-88,127,-14,127,127,-127,127,127,127,-90,82,-127,-127,-127,127,127,-113,127,-37,127,-86,127,127,-87,127,68,8,3,127,24,-127,-112,127,-11,127,127,127,-127,127,-120,117,127,-127,127,-127,127,-127,127,-98,116,123,-127,127,127,-17,127,-117,-127,9,-127,9,127,127,66,9,-127,98,-127,90,127,127,127,127,58,-127,127,-79,53,-10,-25,-91,-28,-127,-44, -127,-33,12,-76,7,39,-54,4,-33,-13,-4,127,-127,9,27,54,-25,38,86,1,18,-28,60,-30,38,19,40,7,-12,-2,6,-10,-91,-30,77,127,-4,-127,-77,-76,-30,-6,30,-31,-73,-57,-91,-106,54,62,-10,-28,127,3,85,-39,84,-32,52,-48,5,-42,-108,-49,-78,-7,-52,-62,-27,5,-103,17,17,-108,15,127,-71,-21,-59,23,-115,-8,-55,-68,-2,27,-82,36,6,-77,127,127,-43,-25,-63,-13, 
  /* [0][2][][] */ -11,-43,-22,-14,21,-8,-12,12,-15,1,31,-43,72,-18,-5,-45,-8,-14,-75,-24,-15,-16,27,-30,12,-9,-24,-4,7,-10,-35,7,24,-1,-4,-15,-2,-27,-13,-9,-19,-9,35,21,22,21,-27,-6,-41,12,-21,-21,-5,-19,44,-8,7,-9,4,-23,6,11,12,-26,-53,-31,123,24,22,19,1,15,-8,-11,-2,-21,-27,34,-37,-6,4,10,-87,-7,-13,-4,30,-5,27,1,-12,-18,-15,-20,-33,0, -19,-60,8,-93,-45,-15,66,127,-60,57,127,-55,-61,-5,127,57,-16,-38,65,-49,-16,-32,127,6,23,-24,17,20,-7,-2,-107,-30,-51,-29,-99,-6,-79,-78,62,-65,-14,-98,-32,127,24,-9,-49,-2,18,3,-21,-4,57,20,-45,-34,-48,-49,46,-61,127,19,127,-30,-115,-61,-11,-42,127,24,-40,31,5,-40,29,-18,-31,-40,-6,62,-32,-21,-66,-74,48,-127,-7,21,-8,-2,53,-3,18,-127,-73,127, -26,8,-18,6,14,-7,2,15,-22,-9,17,44,29,-8,-4,-36,-11,3,-35,-32,-10,2,-14,-15,-6,-12,-20,-1,-5,-3,-42,9,-27,4,-5,1,-4,-15,-17,-5,-31,18,7,-7,18,0,-64,7,-36,-2,-18,-11,3,-20,19,-9,49,-9,11,-26,2,10,-1,-2,-38,-23,-28,32,21,17,-19,-1,-57,-54,11,-10,-11,-10,108,14,24,-1,-50,7,6,-2,45,6,31,-3,-22,10,5,-26,-15,2, 
};
const TfArray<4, int> tensor_dimension28 = { 4, { 1,3,3,96 } };
const TfArray<96, float> quant28_scale = { 96, { 0.0061746486462652683, 0.011327025480568409, 0.010453282855451107, 0.0067927786149084568, 0.0096366293728351593, 0.021419541910290718, 0.0053818393498659134, 0.0088443970307707787, 0.014419941231608391, 0.011505154892802238, 0.010745806619524956, 0.0090149547904729843, 0.0052192904986441135, 0.0086398348212242126, 0.0095887091010808945, 0.010994737967848778, 0.014267005026340485, 0.016825312748551369, 0.0053514372557401657, 0.014034364372491837, 0.010819518938660622, 0.011761778965592384, 0.0058434279635548592, 0.0074573303572833538, 0.05250437930226326, 0.006476379930973053, 0.010598352178931236, 0.0060531697236001492, 0.015923051163554192, 0.007303981576114893, 0.0063876942731440067, 0.011756156571209431, 0.004218915943056345, 0.019815588369965553, 0.0066797579638659954, 0.010672419331967831, 0.014873075298964977, 0.0045358035713434219, 0.013127964921295643, 0.0043502910993993282, 0.028436470776796341, 0.01167902909219265, 0.010282131843268871, 0.0064092613756656647, 0.0085216071456670761, 0.013681921176612377, 0.0077770580537617207, 0.013596729375422001, 0.0090790074318647385, 0.018034467473626137, 0.013747943565249443, 0.0080226575955748558, 0.006268021184951067, 0.017885616049170494, 0.016737610101699829, 0.01383921317756176, 0.0085635744035243988, 0.017112569883465767, 0.014239667914807796, 0.013594248332083225, 0.010437335819005966, 0.011328757740557194, 0.0060466793365776539, 0.0047920667566359043, 0.0093440888449549675, 0.017009975388646126, 0.005547412671148777, 0.0063171768561005592, 0.0081792334094643593, 0.012914351187646389, 0.0054546496830880642, 0.011621588841080666, 0.018554691225290298, 0.0077588781714439392, 0.0055566360242664814, 0.0087513197213411331, 0.0039264857769012451, 0.0076963556930422783, 0.005125818308442831, 0.0078938212245702744, 0.0043712831102311611, 0.011042873375117779, 0.0057913274504244328, 0.015539217740297318, 0.0047674956731498241, 0.012993026524782181, 0.0054554394446313381, 0.0097594717517495155, 0.0051720687188208103, 0.0097794858738780022, 0.0056962035596370697, 0.010061526671051979, 0.016544457525014877, 0.0059394934214651585, 0.0046963347122073174, 0.013337323442101479, } };
const TfArray<96, int> quant28_zero = { 96, { 0,0,0,0,0,0,0,0,0,0,0,0,0,0,0,0,0,0,0,0,0,0,0,0,0,0,0,0,0,0,0,0,0,0,0,0,0,0,0,0,0,0,0,0,0,0,0,0,0,0,0,0,0,0,0,0,0,0,0,0,0,0,0,0,0,0,0,0,0,0,0,0,0,0,0,0,0,0,0,0,0,0,0,0,0,0,0,0,0,0,0,0,0,0,0,0 } };
const TfLiteAffineQuantization quant28 = { (TfLiteFloatArray*)&quant28_scale, (TfLiteIntArray*)&quant28_zero, 3 };
const MODEL_SECTION(EI_MODEL_SECTION) ALIGN(16) int32_t tensor_data29[96] = { 8225, -633, -4330, 7118, 559, 3834, 359, -1253, 2516, -3897, 163, 53, 10951, -2234, -3968, -5014, 481, 1898, -10429, 787, -2646, 877, -5614, 1329, 39, 8936, -10059, -5712, -169, -2930, 2099, -1564, 14644, -354, -1267, -1343, -897, 14334, 2100, 10021, -1768, 4335, -901, 6266, 988, -2236, 10522, 2454, -5879, -577, -2962, 234, 101, -2310, -1487, 1454, 1074, 2664, 46, 2145, -1004, 2048, -3650, 9200, 12797, 19, 13504, 7810, 105, -634, 8238, -1480, 251, 2490, -4764, 100, 16719, 7809, 11977, 9291, 11309, -2041, 6455, 7772, -560, -1423, 11333, -8099, 10030, -282, -6884, -494, -187, 1986, 17274, -828, };
const TfArray<1, int> tensor_dimension29 = { 1, { 96 } };
const TfArray<96, float> quant29_scale = { 96, { 0.0001320458686677739, 0.00024223029322456568, 0.00022354515385814011, 0.00014526468294207007, 0.00020608089107554406, 0.0004580603854265064, 0.00011509151227073744, 0.00018913886742666364, 0.00030837280792184174, 0.00024603962083347142, 0.00022980083303991705, 0.00019278627587482333, 0.00011161537986481562, 0.00018476427067071199, 0.00020505610154941678, 0.0002351242583245039, 0.00030510223587043583, 0.0003598120529204607, 0.00011444136180216447, 0.00030012716888450086, 0.00023137718380894512, 0.00025152755551971495, 0.00012496266572270542, 0.00015947622887324542, 0.0011228147195652127, 0.00013849843526259065, 0.00022664749121759087, 0.00012944801710546017, 0.0003405170573387295, 0.00015619683836121112, 0.00013660188415087759, 0.00025140732759609818, 9.0222201833967119e-05, 0.00042375960038043559, 0.00014284771168604493, 0.00022823142353445292, 0.00031806313199922442, 9.6998897788580507e-05, 0.00028074366855435073, 9.3031681899446994e-05, 0.00060811854200437665, 0.00024975795531645417, 0.00021988507069181651, 0.00013706309255212545, 0.00018223596271127462, 0.00029259012080729008, 0.00016631364997010678, 0.00029076827922835946, 0.0001941560476552695, 0.00038567002047784626, 0.00029400200583040714, 0.00017156584362965077, 0.00013404265337157995, 0.00038248681812547147, 0.00035793651477433741, 0.00029595382511615753, 0.00018313343753106892, 0.00036595508572645485, 0.00030451762722805142, 0.00029071522294543684, 0.00022320412972476333, 0.00024226732784882188, 0.000129309220938012, 0.00010247912723571062, 0.00019982486264780164, 0.00036376109346747398, 0.00011863232793984935, 0.00013509385462384671, 0.00017491423932369798, 0.00027617550222203135, 0.00011664857447613031, 0.00024852956994436681, 0.00039679510518908501, 0.00016592488100286573, 0.00011882956459885463, 0.00018714839825406671, 8.3968538092449307e-05, 0.00016458782192785293, 0.00010961646330542862, 0.00016881065675988793, 9.3480601208284497e-05, 0.00023615364625584334, 0.00012384848378133029, 0.0003323087003082037, 0.00010195367212872952, 0.00027785799466073513, 0.00011666546197375283, 0.00020870789012406021, 0.00011060553515562788, 0.00020913590560667217, 0.00012181424244772643, 0.00021516738343052566, 0.00035380592453293502, 0.00012701703235507011, 0.00010043188376585022, 0.00028522082720883191, } };
const TfArray<96, int> quant29_zero = { 96, { 0,0,0,0,0,0,0,0,0,0,0,0,0,0,0,0,0,0,0,0,0,0,0,0,0,0,0,0,0,0,0,0,0,0,0,0,0,0,0,0,0,0,0,0,0,0,0,0,0,0,0,0,0,0,0,0,0,0,0,0,0,0,0,0,0,0,0,0,0,0,0,0,0,0,0,0,0,0,0,0,0,0,0,0,0,0,0,0,0,0,0,0,0,0,0,0 } };
const TfLiteAffineQuantization quant29 = { (TfLiteFloatArray*)&quant29_scale, (TfLiteIntArray*)&quant29_zero, 0 };
const MODEL_SECTION(EI_MODEL_SECTION) ALIGN(16) int8_t tensor_data30[16*1*1*96] = { 
  /* [0][0][][] */ 27,14,19,18,-25,-81,-15,-6,-19,-78,13,-15,58,-64,69,36,-86,-34,35,6,79,15,-71,4,-6,75,127,68,18,78,49,-44,6,-2,5,-32,35,21,-16,-3,111,13,24,-15,-12,-2,-7,-46,25,-47,102,-10,-61,-6,41,29,-18,-46,7,14,-15,48,-65,-9,16,-18,67,29,-4,-27,19,24,4,37,6,30,54,-29,48,23,-20,41,32,26,-64,6,-6,62,21,0,-87,-18,28,8,120,82, 
  /* [1][0][][] */ 15,38,-53,-11,4,-44,96,-71,-69,-32,-64,-42,-8,-37,-12,-57,-34,-28,-26,-22,-9,-85,116,-27,5,13,6,63,-43,10,-33,16,-36,18,7,8,-17,57,-52,77,23,16,2,-51,49,-57,-2,29,-87,1,44,-107,-46,34,66,61,32,26,-60,17,-48,-3,-18,-21,28,19,94,12,-44,-127,5,0,23,69,-16,38,-57,-31,96,-33,43,-6,48,-55,-22,-59,-23,16,-25,-45,35,2,68,-51,-37,49, 
  /* [2][0][][] */ 8,-16,21,-12,57,39,-54,22,-52,41,14,-24,35,-10,19,30,29,-19,-127,0,-24,-43,-14,19,1,-12,-44,15,-37,-18,-20,69,-13,-33,0,12,-40,23,-25,-17,69,11,-1,44,12,52,0,-5,-75,10,-13,9,-27,51,9,-64,34,20,44,34,-22,-2,-16,55,41,2,-32,-6,-8,3,-15,-33,27,53,24,73,-55,-7,-25,-27,32,30,54,-16,-11,-46,-10,-49,-11,-39,-12,68,4,-9,85,-36, 
  /* [3][0][][] */ 44,-32,-27,-111,-17,-30,114,-35,29,124,-72,-16,11,-27,-19,67,57,67,-25,26,-63,22,15,-3,-61,80,59,-3,-43,-9,-75,61,5,-21,17,-27,10,-55,-32,62,15,2,-21,18,69,-44,-17,30,53,-35,27,-48,99,47,26,-15,7,-16,-18,-52,-46,38,74,0,-27,-22,127,-28,-45,-29,-60,23,14,-75,-3,-66,5,-46,116,2,-15,-55,-31,-41,-35,-39,84,74,-39,31,-60,3,8,-87,-11,30, 
  /* [4][0][][] */ -30,84,24,19,-8,17,-42,-23,13,-35,2,-11,27,37,-33,18,-12,-42,-14,-70,22,-29,-65,21,-33,-31,-16,21,-37,127,-49,-20,13,-36,-4,-36,71,46,-34,0,18,12,16,-45,-47,-13,59,-24,17,-18,-66,-4,-62,33,48,18,10,62,-25,26,-23,-72,-28,2,56,25,-66,-7,2,-6,4,-72,-17,58,51,71,-38,15,-63,50,17,66,31,-63,44,-69,-28,-62,-40,-46,-54,-22,-8,10,37,-36, 
  /* [5][0][][] */ -5,-11,30,-17,-15,-17,-16,-1,33,14,-15,-7,-24,-31,30,-23,-15,16,-46,-32,-27,22,-23,7,14,-41,67,-20,-3,34,13,76,-11,-82,25,15,-39,-27,-39,-1,-46,0,-24,11,4,25,-78,24,-10,14,57,-5,31,-75,3,12,-21,-53,1,-43,35,20,30,40,-38,6,110,-23,-3,-30,10,11,-4,29,39,10,-11,-17,127,35,-23,-10,-29,28,45,65,4,96,-1,-31,-15,8,5,-18,-23,18, 
  /* [6][0][][] */ 27,-50,69,7,-48,112,-58,-106,-22,-77,-82,59,11,6,-29,75,1,47,17,-29,-100,-21,-92,-66,1,-49,1,70,-127,45,-11,-35,50,94,-12,-8,-5,-43,19,-14,-57,44,25,-27,27,47,-105,-3,69,17,-73,-111,79,16,-48,-20,29,-22,20,-19,0,-47,48,4,62,-68,-62,-70,-94,16,-24,-74,-20,-106,21,-103,89,15,-74,51,-35,79,29,-102,64,-42,-11,2,-66,75,-84,85,44,-56,75,-96, 
  /* [7][0][][] */ -8,-7,-56,62,-26,0,34,-8,-86,3,76,52,4,-59,-9,-29,-3,-10,2,10,-54,-17,-47,-34,59,46,-15,64,-7,32,28,28,-57,-127,23,105,-3,12,-45,12,-3,-13,-1,-77,34,49,64,82,-17,43,-41,-6,19,-33,47,-51,-19,39,-86,-16,54,2,3,-25,76,-38,101,-8,-62,-27,72,9,-12,-30,-82,-27,27,-31,88,-25,1,-17,-61,-28,41,16,-66,43,-3,9,-1,26,53,-8,84,-15, 
  /* [8][0][][] */ -15,-55,4,9,-8,-4,22,-1,-12,-9,45,48,15,38,-55,-6,71,4,17,-3,-11,-71,-34,-23,-21,-32,72,12,-25,48,10,-27,-19,-3,-8,4,-43,-13,16,-33,-9,56,32,-46,9,-18,31,-18,30,-3,39,6,0,18,-41,0,-8,104,-56,1,-12,-63,-69,-16,-92,-31,-22,19,-11,12,31,-25,-27,-127,41,-103,8,15,-58,18,-26,-11,-2,64,73,-66,-45,57,-42,93,12,-19,-57,4,0,-67, 
  /* [9][0][][] */ -30,-27,-32,23,5,22,7,41,-36,6,56,56,-30,50,21,-48,-9,32,-24,-33,1,42,-1,11,-18,22,10,19,34,-14,19,-3,-19,-22,13,55,-25,-3,28,-3,-14,-24,15,-1,11,49,3,35,-36,14,-7,37,127,17,-11,-12,17,-22,35,9,-34,0,76,6,10,26,58,8,27,0,-21,28,10,-120,-34,-115,-37,-16,35,-5,-2,29,0,-36,42,8,-56,-4,-5,108,37,30,54,34,-8,25, 
  /* [10][0][][] */ 19,40,10,0,-13,16,-37,-17,62,9,-35,25,19,12,-10,-54,-34,-8,20,-6,30,-10,-15,-27,18,-24,-97,46,-17,55,3,15,16,29,-15,-2,14,7,4,-4,38,-9,62,-46,-37,-9,23,25,10,8,1,-27,-24,-15,0,36,-9,3,-7,2,-12,-32,-12,8,-7,-19,-96,-26,-46,-12,47,-11,-23,35,37,21,50,-21,-93,9,-8,38,-4,-1,9,16,-72,-127,-28,25,13,24,56,-26,9,31, 
  /* [11][0][][] */ 15,-39,-2,11,-51,20,16,13,67,-15,-22,-37,24,15,8,-10,-29,41,25,-66,13,26,18,-21,47,8,59,4,33,-58,-24,21,15,102,-93,8,7,-9,60,6,-53,48,-12,14,-51,1,-7,-8,41,-14,-29,-17,-23,9,-73,93,-26,-6,4,-18,17,8,-13,-67,-11,-40,-127,-71,4,-29,-83,25,47,21,-6,2,34,50,-107,-41,-6,1,-21,1,-16,-4,53,72,17,-40,9,9,-31,31,69,37, 
  /* [12][0][][] */ 25,29,-32,-29,10,-33,8,36,61,-40,23,-8,3,-17,6,17,6,-38,-28,16,12,54,-1,48,-50,-36,-127,-13,77,-22,26,-4,-17,-72,69,-10,39,-18,-8,22,-2,-67,12,39,49,8,16,-12,-73,-7,-43,101,78,-19,28,-76,4,16,-41,-36,13,59,88,9,-12,-15,36,23,112,26,21,31,-2,-24,-14,-9,-42,-54,47,-68,19,-54,32,-46,0,5,11,-115,-5,33,-38,27,23,67,16,47, 
  /* [13][0][][] */ -11,15,-69,19,19,19,-4,8,34,68,-36,36,-48,-33,68,-43,18,50,48,20,-37,-38,-6,14,31,43,-16,27,1,35,51,-11,-16,61,-9,40,15,-40,-45,-43,-4,-21,14,20,48,48,-37,46,-36,38,9,-4,-17,-39,54,31,9,-49,-10,-23,27,17,7,-20,14,88,127,33,16,6,-42,-9,41,50,-79,49,10,-64,114,-34,-19,-38,20,-2,23,49,-27,-21,-12,-33,11,51,44,9,56,53, 
  /* [14][0][][] */ -3,52,22,17,-62,-45,15,33,-69,-20,66,5,-76,-12,73,-19,-44,50,-60,30,-31,23,-98,7,-57,3,-42,-107,9,-8,22,71,-54,27,13,-10,-25,-71,-11,-35,34,-40,42,-19,-3,54,-80,28,-3,-39,87,32,-7,24,-29,22,-55,29,-11,28,31,54,-1,43,18,-42,7,-66,37,51,69,34,-45,31,4,12,22,-8,36,18,-70,108,4,-127,77,-10,1,4,-99,-10,-27,-4,-29,5,45,32, 
  /* [15][0][][] */ 64,-37,23,27,45,6,-11,3,17,17,-62,-12,67,76,-8,-19,-7,-3,-63,45,12,-32,22,31,79,-38,75,27,47,-30,-39,65,62,57,-1,-76,54,70,71,47,81,47,-18,6,-46,-127,41,-34,-39,-15,-20,-9,-14,-56,-24,61,-10,-3,-3,29,6,-53,-37,24,33,43,-79,36,-5,-27,-2,-5,0,-114,-39,-99,-10,18,-110,25,84,-28,42,29,-48,0,-11,-23,35,90,17,-60,-29,-22,20,-31, 
};
const TfArray<4, int> tensor_dimension30 = { 4, { 16,1,1,96 } };
const TfArray<16, float> quant30_scale = { 16, { 0.0041951616294682026, 0.0023218102287501097, 0.0026024184189736843, 0.0029869708232581615, 0.0036217838060110807, 0.0056224232539534569, 0.0023026121780276299, 0.0026947213336825371, 0.0045127822086215019, 0.0042214845307171345, 0.004761948250234127, 0.003521688049659133, 0.0038610717747360468, 0.003617691108956933, 0.0032500938978046179, 0.0035058497451245785, } };
const TfArray<16, int> quant30_zero = { 16, { 0,0,0,0,0,0,0,0,0,0,0,0,0,0,0,0 } };
const TfLiteAffineQuantization quant30 = { (TfLiteFloatArray*)&quant30_scale, (TfLiteIntArray*)&quant30_zero, 0 };
const MODEL_SECTION(EI_MODEL_SECTION) ALIGN(16) int32_t tensor_data31[16] = { -24782, -3689, 1099, -13621, 13329, -13230, 20632, -9949, 13374, -9444, 13160, 11304, -4927, -28068, 1251, 4313, };
const TfArray<1, int> tensor_dimension31 = { 1, { 16 } };
const TfArray<16, float> quant31_scale = { 16, { 9.8709686426445842e-05, 5.4630829254165292e-05, 6.1233375163283199e-05, 7.0281668740790337e-05, 8.5218445747159421e-05, 0.00013229231990408152, 5.4179112339625135e-05, 6.3405212131328881e-05, 0.00010618311353027821, 9.9329052318353206e-05, 0.00011204584006918594, 8.2863247371278703e-05, 9.0848749096039683e-05, 8.5122148448135704e-05, 7.6472795626614243e-05, 8.2490587374195457e-05, } };
const TfArray<16, int> quant31_zero = { 16, { 0,0,0,0,0,0,0,0,0,0,0,0,0,0,0,0 } };
const TfLiteAffineQuantization quant31 = { (TfLiteFloatArray*)&quant31_scale, (TfLiteIntArray*)&quant31_zero, 0 };
const MODEL_SECTION(EI_MODEL_SECTION) ALIGN(16) int8_t tensor_data32[96*1*1*16] = { 
  /* [0][0][][] */ -54,34,-13,-13,-36,-47,-62,-34,64,-56,54,-46,92,-99,37,-127, 
  /* [1][0][][] */ -127,76,-104,-112,-104,51,-11,87,-50,-10,100,-81,73,123,40,52, 
  /* [2][0][][] */ -53,-19,-67,0,-15,-60,24,-38,-104,127,84,14,63,66,-38,117, 
  /* [3][0][][] */ -53,-71,9,-40,-89,2,-51,-121,-5,12,41,-85,-69,-44,-127,-40, 
  /* [4][0][][] */ 68,-5,-24,49,-60,-7,-127,44,27,69,25,47,-3,-2,-58,-81, 
  /* [5][0][][] */ -87,59,-76,-41,64,-67,-16,-81,91,-23,6,-33,31,-127,-117,-103, 
  /* [6][0][][] */ -22,-39,-26,34,-96,68,38,-44,-14,-48,127,-28,-10,-8,-110,4, 
  /* [7][0][][] */ -30,90,127,-67,68,80,5,-53,45,55,-89,-24,56,-3,14,53, 
  /* [8][0][][] */ -40,12,52,-14,52,3,97,127,-89,-15,-83,-86,40,84,-63,-88, 
  /* [9][0][][] */ 38,61,120,2,-103,-59,-108,-120,58,14,127,37,-72,-114,43,-21, 
  /* [10][0][][] */ -3,-112,14,-70,-127,52,21,22,-32,-62,-6,38,-9,43,-108,4, 
  /* [11][0][][] */ 111,-55,-10,92,-125,-26,51,-8,127,106,-30,56,17,-83,-15,112, 
  /* [12][0][][] */ -61,-33,127,-43,73,1,29,37,44,-35,93,83,-39,12,-97,29, 
  /* [13][0][][] */ -9,-32,4,39,9,17,127,34,-94,15,7,21,-31,120,92,-69, 
  /* [14][0][][] */ 127,-114,114,15,105,88,112,98,102,28,91,47,42,-52,29,-66, 
  /* [15][0][][] */ 5,127,27,-54,37,116,-81,72,-55,-32,-36,-10,-30,122,-13,-54, 
  /* [16][0][][] */ -46,69,117,-49,27,84,3,-14,-6,18,-17,46,89,-2,90,127, 
  /* [17][0][][] */ -1,98,63,-127,48,-27,17,-69,-44,87,-36,46,-75,-21,85,-38, 
  /* [18][0][][] */ -72,2,-81,-74,98,82,-50,-74,29,82,127,77,4,119,-33,-7, 
  /* [19][0][][] */ 30,122,78,74,52,-25,-14,-2,-31,127,44,118,51,63,-61,32, 
  /* [20][0][][] */ 84,-7,6,65,-57,-6,-34,55,-30,-58,-127,-57,80,-46,15,-14, 
  /* [21][0][][] */ -86,-71,-17,99,-28,-5,-127,65,13,7,19,16,-35,20,-73,1, 
  /* [22][0][][] */ -3,15,-92,-61,127,11,-39,75,75,96,35,59,-39,27,-5,50, 
  /* [23][0][][] */ -83,8,-17,28,1,66,114,106,-15,127,-11,-36,-1,19,-75,-6, 
  /* [24][0][][] */ 37,-80,35,-12,127,58,78,-60,51,41,56,53,-77,52,7,-13, 
  /* [25][0][][] */ 127,-56,73,24,0,-15,-29,82,106,-27,-60,-2,125,-62,99,46, 
  /* [26][0][][] */ 46,24,106,91,90,-15,-73,7,9,65,26,127,21,-69,21,-73, 
  /* [27][0][][] */ -48,50,-92,28,-35,127,28,-82,45,-76,122,18,24,-46,117,123, 
  /* [28][0][][] */ -101,37,-103,-122,37,-72,-3,-18,-127,76,-20,40,-51,34,-33,104, 
  /* [29][0][][] */ 86,97,-71,43,20,77,-41,-25,50,50,3,54,-127,9,-29,71, 
  /* [30][0][][] */ -27,73,-127,-44,73,-38,19,1,-60,45,-62,-16,12,69,-21,116, 
  /* [31][0][][] */ 25,-107,77,39,54,-63,-74,37,0,-10,29,-37,-77,34,25,127, 
  /* [32][0][][] */ -46,90,-6,25,-127,57,30,38,-1,-126,25,-77,53,62,61,62, 
  /* [33][0][][] */ -74,-1,56,98,-9,18,-49,13,-50,-61,20,-21,-18,5,4,127, 
  /* [34][0][][] */ -18,10,-78,-109,66,-21,-18,51,18,-6,9,-8,-42,-28,-36,127, 
  /* [35][0][][] */ 71,-9,23,-9,0,21,-84,-25,-9,-127,-54,18,-15,-34,48,-27, 
  /* [36][0][][] */ 2,35,-127,-23,34,122,-19,34,-13,20,51,37,10,28,-79,62, 
  /* [37][0][][] */ 46,35,56,-43,50,-127,46,-30,-107,52,-85,-34,3,14,85,29, 
  /* [38][0][][] */ -46,127,20,-58,44,34,64,-95,0,-10,-86,45,-49,-88,-98,3, 
  /* [39][0][][] */ 83,38,-123,-112,-9,-15,18,-69,13,-1,-1,-38,50,3,-127,-73, 
  /* [40][0][][] */ -35,22,-77,-70,-58,-8,22,-127,-6,-6,3,-34,25,68,41,62, 
  /* [41][0][][] */ -33,-95,-13,127,9,-28,-64,-5,-7,-41,72,-59,-57,-1,4,15, 
  /* [42][0][][] */ -32,56,-23,-127,22,27,-7,-5,63,-1,-34,25,71,-21,-23,5, 
  /* [43][0][][] */ -5,57,3,13,113,28,14,4,16,54,0,-79,-127,-41,-2,-10, 
  /* [44][0][][] */ 82,-11,29,39,-27,-8,7,27,30,-32,23,7,127,0,-51,-36, 
  /* [45][0][][] */ 9,-96,-67,38,-32,-84,-6,44,31,-30,19,46,-93,127,31,-41, 
  /* [46][0][][] */ -17,-89,59,75,5,-21,-120,66,30,-44,47,-15,41,84,94,127, 
  /* [47][0][][] */ -47,-58,14,86,2,5,58,21,13,-67,-127,-36,31,-33,-76,14, 
  /* [48][0][][] */ -87,95,-36,-22,-4,70,1,-91,35,-17,56,-35,36,-127,-31,1, 
  /* [49][0][][] */ -70,-1,43,-33,0,0,122,127,-26,-32,-10,18,-49,27,-56,31, 
  /* [50][0][][] */ 55,22,-72,32,43,-127,-44,-5,-71,59,-49,-5,21,-97,-125,-56, 
  /* [51][0][][] */ -38,75,-38,105,-24,55,-37,-72,-41,-75,-8,-55,-11,42,-19,127, 
  /* [52][0][][] */ -120,21,15,-15,31,41,63,7,20,-79,-46,-43,-107,-58,-127,-11, 
  /* [53][0][][] */ -49,-59,-60,-127,-34,-12,12,68,41,-49,-42,23,-33,25,56,110, 
  /* [54][0][][] */ 46,-43,1,-24,-104,41,63,-58,-52,-111,55,35,-4,-30,-127,43, 
  /* [55][0][][] */ -12,-24,-38,24,66,-22,67,81,-56,-56,-127,-34,53,-29,-24,34, 
  /* [56][0][][] */ 79,-27,-45,-49,-109,18,-127,-16,-32,-31,-25,9,103,-32,48,2, 
  /* [57][0][][] */ -47,28,7,-28,127,55,53,22,-32,57,-6,13,-81,80,-108,-15, 
  /* [58][0][][] */ 31,5,3,-30,48,-13,-45,-66,55,-127,-70,2,-74,-57,-36,53, 
  /* [59][0][][] */ -85,-34,-9,24,11,67,-113,-38,95,127,-79,8,-22,5,-18,5, 
  /* [60][0][][] */ 30,-48,10,14,-127,-50,28,-1,-20,41,-19,50,13,-35,40,44, 
  /* [61][0][][] */ 19,38,-84,-16,-53,-12,-127,-82,-20,13,45,108,63,-53,103,62, 
  /* [62][0][][] */ 55,-20,37,-11,-25,39,44,121,-57,127,15,87,38,37,88,91, 
  /* [63][0][][] */ 21,-121,-8,-29,-62,7,47,-24,-19,-25,1,-14,-28,127,109,37, 
  /* [64][0][][] */ -14,4,-127,-36,15,53,34,-6,-12,-82,48,-8,68,-32,-45,96, 
  /* [65][0][][] */ -17,-10,68,61,91,-15,78,88,-37,-7,-127,-79,24,106,-83,-21, 
  /* [66][0][][] */ -55,-127,9,-114,-46,-109,27,-21,-10,-32,36,109,-66,-49,-66,77, 
  /* [67][0][][] */ -27,-66,-69,-12,-70,86,-16,-127,-68,5,-44,-86,26,-21,-58,44, 
  /* [68][0][][] */ 127,51,36,-20,-70,10,-78,-40,-80,-114,-18,1,51,-35,87,-54, 
  /* [69][0][][] */ 44,10,68,-26,-9,-61,-47,41,-25,127,-36,-1,-4,37,86,-34, 
  /* [70][0][][] */ 31,6,-33,59,-89,36,-7,-91,101,127,18,57,31,-40,-11,22, 
  /* [71][0][][] */ 127,-77,90,101,-64,-51,38,-14,127,17,-61,49,84,-81,27,33, 
  /* [72][0][][] */ -31,-23,35,93,54,6,-127,97,86,-3,50,14,-68,-74,-75,87, 
  /* [73][0][][] */ 51,10,63,-127,70,-89,-82,43,-19,107,-32,23,11,-95,16,-50, 
  /* [74][0][][] */ 100,6,42,43,-127,-38,38,-7,-74,-40,5,-46,38,-83,5,15, 
  /* [75][0][][] */ 77,127,-117,18,58,59,-28,-25,-24,-31,59,82,-127,64,68,87, 
  /* [76][0][][] */ -74,-30,14,-56,-51,-19,90,0,-71,32,102,41,-52,-127,-19,96, 
  /* [77][0][][] */ -52,127,-15,3,-50,-70,39,66,34,-43,-14,71,-25,51,-2,85, 
  /* [78][0][][] */ 125,63,-69,18,-76,60,-127,-25,-11,0,-71,14,44,-113,18,74, 
  /* [79][0][][] */ -74,-38,102,55,-22,-65,-45,-61,-34,-5,20,-5,-65,127,-58,65, 
  /* [80][0][][] */ 80,107,30,-127,-8,37,82,-41,5,17,-43,28,80,-38,6,-16, 
  /* [81][0][][] */ 33,-61,3,-127,101,40,-28,117,94,14,-3,-29,-33,28,-86,-61, 
  /* [82][0][][] */ 61,41,58,14,127,-79,18,37,14,111,-33,33,-22,-46,26,-88, 
  /* [83][0][][] */ -21,91,29,8,82,46,127,96,0,44,-31,-69,-87,98,-53,-88, 
  /* [84][0][][] */ 8,-58,4,93,-6,-94,-65,43,-68,60,-62,-13,-127,52,5,-52, 
  /* [85][0][][] */ -99,57,-29,-37,0,-52,-66,-47,-27,50,11,-58,-127,-88,-82,33, 
  /* [86][0][][] */ -8,58,96,105,31,-46,46,15,-1,18,-55,-71,23,68,-127,-56, 
  /* [87][0][][] */ -22,48,127,-37,-84,-25,18,12,29,-26,13,46,-58,20,-6,3, 
  /* [88][0][][] */ -19,-65,-127,34,32,46,3,16,-10,-72,-122,-101,115,-10,5,48, 
  /* [89][0][][] */ 31,24,16,-115,8,-61,-48,47,127,-10,21,-102,2,-40,53,-82, 
  /* [90][0][][] */ -4,64,15,15,-41,44,33,114,7,-51,-9,127,45,15,-29,78, 
  /* [91][0][][] */ -61,12,-22,75,76,55,-34,-98,-29,42,-14,17,-108,-127,-53,-14, 
  /* [92][0][][] */ -39,65,-9,-14,-127,12,-78,53,-35,52,96,65,-26,-3,57,15, 
  /* [93][0][][] */ 106,31,87,48,-127,-77,16,32,-11,-69,-15,-57,14,-41,-9,0, 
  /* [94][0][][] */ -40,-127,24,-104,11,30,-23,8,75,-25,6,52,12,66,-46,49, 
  /* [95][0][][] */ -48,-69,-22,-56,127,103,-35,51,96,47,-72,53,-25,115,-87,31, 
};
const TfArray<4, int> tensor_dimension32 = { 4, { 96,1,1,16 } };
const TfArray<96, float> quant32_scale = { 96, { 0.0017483626725152135, 0.001357001718133688, 0.0022395572159439325, 0.0028299789410084486, 0.0019949853885918856, 0.0010771164670586586, 0.0012560668401420116, 0.0020676311105489731, 0.0022249219473451376, 0.0012445432366803288, 0.0029264003969728947, 0.0017802243819460273, 0.0023996082600206137, 0.0021309787407517433, 0.0021734402980655432, 0.0021098472643643618, 0.0020906110294163227, 0.0012815535301342607, 0.0015424943994730711, 0.002301917877048254, 0.0019887718372046947, 0.0008569277124479413, 0.0011665346100926399, 0.0024635929148644209, 0.002333722310140729, 0.0021039445418864489, 0.0011637224815785885, 0.0014714633580297232, 0.0023051167372614145, 0.002132160821929574, 0.0013455377193167806, 0.0030147668439894915, 0.00093111873138695955, 0.0023713414557278156, 0.002659292658790946, 0.0020985000301152468, 0.0022144506219774485, 0.0013139470247551799, 0.0020569772459566593, 0.0022071674466133118, 0.0021277973428368568, 0.0022699972614645958, 0.0031080523040145636, 0.0037718450184911489, 0.0035194964148104191, 0.0021335394121706486, 0.0017963116988539696, 0.0018425497692078352, 0.0035045982804149389, 0.0031680702231824398, 0.001177953090518713, 0.0019506519893184304, 0.0023394261952489614, 0.0034670454915612936, 0.0023932789918035269, 0.0020894119516015053, 0.0034118052572011948, 0.0025607927236706018, 0.0015326275024563074, 0.0020687268115580082, 0.0031228621955960989, 0.0016241215635091066, 0.0021432766225188971, 0.0018270766595378518, 0.0022692694328725338, 0.0014151211362332106, 0.0018801938276737928, 0.002796549117192626, 0.0018792689079418778, 0.002417129697278142, 0.0018129079835489392, 0.0019574258476495743, 0.0016243704594671726, 0.0013627636944875121, 0.0019994457252323627, 0.0013651563785970211, 0.0026596309617161751, 0.0027115349657833576, 0.0029035832267254591, 0.0022830537054687738, 0.0016790832160040736, 0.0017366051906719804, 0.0012419777922332287, 0.0028938292525708675, 0.0031215192284435034, 0.0024424453731626272, 0.0023999353870749474, 0.0032362921629101038, 0.00085817795479670167, 0.0023157284595072269, 0.0038849429693073034, 0.0031016366556286812, 0.00074806221527978778, 0.0019425327191129327, 0.0029240876901894808, 0.0017711584223434329, } };
const TfArray<96, int> quant32_zero = { 96, { 0,0,0,0,0,0,0,0,0,0,0,0,0,0,0,0,0,0,0,0,0,0,0,0,0,0,0,0,0,0,0,0,0,0,0,0,0,0,0,0,0,0,0,0,0,0,0,0,0,0,0,0,0,0,0,0,0,0,0,0,0,0,0,0,0,0,0,0,0,0,0,0,0,0,0,0,0,0,0,0,0,0,0,0,0,0,0,0,0,0,0,0,0,0,0,0 } };
const TfLiteAffineQuantization quant32 = { (TfLiteFloatArray*)&quant32_scale, (TfLiteIntArray*)&quant32_zero, 0 };
const MODEL_SECTION(EI_MODEL_SECTION) ALIGN(16) int32_t tensor_data33[96] = { 6323, 3549, 1253, -1038, 5003, 11221, 10106, 2079, -327, 9050, 1005, -3926, 3017, 2811, 465, -686, 4340, 8549, -623, 261, 4595, 15587, 11100, -1586, -3345, -1044, 10704, -90, 1527, 1311, 9157, -1221, 13648, 3097, 3538, -5127, 813, -7207, 546, 2133, 3189, 1690, 1745, -334, 1012, 2845, 4816, 5219, 2325, 2519, 8885, 3415, -2378, 1397, 1643, 2955, 1495, 1815, 7675, 1597, -1147, 6551, 3752, 4993, 3816, 7921, -5324, 2412, 4580, -1198, 5733, 1365, 4089, 4421, 3924, 3008, -875, 1974, 1987, 3196, 4298, 3810, 9081, 168, 1381, 4078, 860, -1166, 16508, -444, 378, -1206, 18396, 3096, -103, -1138, };
const TfArray<1, int> tensor_dimension33 = { 1, { 96 } };
const TfArray<96, float> quant33_scale = { 96, { 0.0001174764838651754, 9.1180045274086297e-05, 0.00015048096247483045, 0.00019015275756828487, 0.00013404763012658805, 7.2373921284452081e-05, 8.4398001490626484e-05, 0.00013892886636313051, 0.0001494975876994431, 8.3623708633240312e-05, 0.0001966315321624279, 0.0001196173470816575, 0.0001612351625226438, 0.00014318533067125827, 0.00014603842282667756, 0.00014176545664668083, 0.00014047294098418206, 8.611051453044638e-05, 0.00010364372428739443, 0.00015467112825717777, 0.00013363012112677097, 5.7578930864110589e-05, 7.8382130595855415e-05, 0.00016553443856537342, 0.00015680813521612436, 0.00014136884419713169, 7.8193173976615071e-05, 9.8870987130794674e-05, 0.00015488606004510075, 0.0001432647550245747, 9.0409754193387926e-05, 0.00020256907737348229, 6.256399501580745e-05, 0.00015933586109895259, 0.0001786839566193521, 0.00014100300904829055, 0.00014879400259815156, 8.8287102698814124e-05, 0.00013821299944538623, 0.00014830462168902159, 0.00014297156303655356, 0.00015252630691975355, 0.00020883714023511857, 0.00025343889137730002, 0.0002364830143051222, 0.00014335739251691848, 0.00012069829244865105, 0.00012380513362586498, 0.00023548197350464761, 0.00021286988339852542, 7.9149358498398215e-05, 0.00013106876576784998, 0.00015719138900749385, 0.00023295871505979449, 0.00016080988280009478, 0.00014039236702956259, 0.00022924700169824064, 0.0001720655127428472, 0.00010298074630554765, 0.00013900248450227082, 0.00020983224385417998, 0.0001091284430003725, 0.00014401166117750108, 0.00012276545749045908, 0.00015247739793267101, 9.5085226348601282e-05, 0.00012633451842702925, 0.00018790652393363416, 0.0001262723671970889, 0.0001624124706722796, 0.00012181343481643125, 0.00013152392057236284, 0.00010914516315096989, 9.1567206254694611e-05, 0.00013434732682071626, 9.1727975814137608e-05, 0.00017870668671093881, 0.00018219422781839967, 0.00019509840058162808, 0.0001534035982331261, 0.00011282144259894267, 0.00011668647493934259, 8.3451326645445079e-05, 0.00019444299687165767, 0.00020974200742784888, 0.00016411348769906908, 0.00016125715046655387, 0.00021745386766269803, 5.7662939070723951e-05, 0.0001555990893393755, 0.00026103819254785776, 0.00020840605429839343, 5.0264010496903211e-05, 0.00013052321446593851, 0.00019647613225970417, 0.00011900818208232522, } };
const TfArray<96, int> quant33_zero = { 96, { 0,0,0,0,0,0,0,0,0,0,0,0,0,0,0,0,0,0,0,0,0,0,0,0,0,0,0,0,0,0,0,0,0,0,0,0,0,0,0,0,0,0,0,0,0,0,0,0,0,0,0,0,0,0,0,0,0,0,0,0,0,0,0,0,0,0,0,0,0,0,0,0,0,0,0,0,0,0,0,0,0,0,0,0,0,0,0,0,0,0,0,0,0,0,0,0 } };
const TfLiteAffineQuantization quant33 = { (TfLiteFloatArray*)&quant33_scale, (TfLiteIntArray*)&quant33_zero, 0 };
const MODEL_SECTION(EI_MODEL_SECTION) ALIGN(16) int8_t tensor_data34[1*3*3*96] = { 
  /* [0][0][][] */ 23,127,6,8,-27,7,42,50,50,-77,-86,22,-13,-45,32,-37,-93,20,29,24,40,59,70,88,31,-18,-40,-10,-12,3,10,-20,-66,-4,-24,115,14,47,10,-9,29,-43,-12,28,-83,-34,6,-21,2,-60,-24,-8,-4,50,-19,-15,-45,-61,-38,-127,-127,0,-101,3,-36,47,13,-13,-41,51,38,1,-34,4,43,-11,-7,-47,-42,25,-6,-63,45,-31,-107,-38,-15,27,-117,19,-107,46,73,-6,49,4, -47,-18,8,63,-12,96,-25,4,63,51,-127,59,-35,-77,-50,127,-105,70,60,85,127,7,103,116,42,19,18,45,-7,127,-19,-127,73,75,10,56,88,95,-34,-127,127,-15,74,127,-33,-91,127,-65,-5,-127,-82,-34,0,127,-44,-127,0,27,-99,-91,16,-127,-52,99,-46,91,66,-22,8,127,127,3,-50,25,-29,-105,12,-69,20,127,-24,-17,127,-70,-91,-46,111,75,91,117,-74,15,127,-31,127,35, 2,-62,10,5,-11,-11,-19,56,27,86,-101,26,-10,39,25,-74,-22,21,20,12,39,46,61,127,34,-40,29,45,-9,23,-11,-50,-30,-82,-28,69,-22,-9,-1,16,-15,24,-21,46,-36,-35,-2,12,25,-92,14,10,-3,-7,18,6,40,-69,14,-77,-112,26,-83,0,44,12,-24,-4,-20,-26,13,5,-10,-25,-11,18,10,-24,-95,0,-8,-45,42,-21,40,-33,-2,-16,-94,8,-21,44,13,47,30,-11, 
